99 100
the -0.043858793 0.005333075 -0.15437467 -0.22278571 0.043131985 -0.03619228 -0.025757527 0.06581011 -0.15391967 -0.014777627 0.12136569 0.024709981 0.08495914 -0.15915737 0.008218535 0.06809699 0.08354639 0.12369967 -0.032131046 0.003440769 -0.028019888 -0.12796025 -0.1250755 -0.10906988 0.070765994 -0.15135388 -0.12766719 0.055442188 0.035108 0.1747893 0.16550556 0.025119426 0.08956041 -0.09380488 0.12546429 -0.16077226 -0.049075622 0.10329906 -0.027486742 -0.074553795 0.04372314 -0.09344311 -0.035254333 -0.066788115 -0.044165336 0.16130905 -0.081744015 0.04832435 -0.07107051 -0.15783265 0.07753813 -0.012186334 -0.0782709 -0.036127143 0.025629427 0.12719285 0.09673012 0.037497684 0.13702159 0.017313786 0.023596201 0.007581858 0.03234509 0.055764765 -0.09912438 -0.10183598 0.10002204 0.059224095 0.019115558 0.016117152 0.16210677 -0.17379606 0.13984117 -0.1643294 0.11314142 0.03324824 -0.21559338 -0.050135892 -0.08717849 -0.114816844 0.08834119 -0.12893166 0.08845715 -0.15210567 0.07318295 0.15062901 0.036735542 0.015321235 -0.13764977 -0.10699942 0.13698812 0.07884856 -0.01284462 0.0373041 -0.032920536 -0.07306929 -0.002910846 0.05774035 -0.12262238 0.22548741
of 0.041591763 -0.005316025 -0.11520188 -0.20901224 -0.052970026 -0.05634651 0.004634136 0.05381991 -0.1805366 0.04655574 0.14344423 0.008351372 0.022144966 -0.14813736 0.009360049 0.016203122 0.12034118 0.13414133 -0.03360085 -0.08315744 -0.0040001925 -0.030531866 -0.07750849 -0.024151636 0.052698873 -0.14337814 -0.043674678 0.0163875 -0.048218496 0.12267699 0.13852102 0.019338613 0.09173723 -0.07091472 0.05193544 -0.15839137 -0.05316463 0.017552197 -0.044160143 -0.087410815 0.040652905 -0.16489303 -0.017528018 -0.08819334 0.035090864 0.1670243 -0.070438124 0.082356185 -0.03836683 -0.17293443 0.011217404 -0.011670115 -0.10897506 -0.06217039 0.085253894 0.11245001 0.08252114 0.02235263 0.18443513 -0.0143606225 0.0248728 0.05781989 -0.04032632 -0.026076712 -0.12639593 -0.12258252 0.15452881 0.072930895 -0.0015198821 -0.023852786 0.10672155 -0.21326555 0.14590764 -0.20191734 0.05091953 0.0022202232 -0.22276567 -0.11017981 -0.01147437 -0.12531933 0.15463182 -0.101280764 0.1421437 -0.14448486 0.06304494 0.1782135 0.06095535 0.08690021 -0.11900426 -0.13287212 0.0880755 0.058878995 -0.06331829 0.04150606 -0.038890116 -0.08896533 0.030757055 0.13295297 -0.12144631 0.15202826
was -0.06721929 -0.03808212 -0.045122545 -0.20191194 -0.010895232 0.03582361 -0.019794231 0.061286278 -0.17991209 0.050631154 0.14342786 -0.06969035 0.10485525 -0.14123021 0.078722425 0.09712053 0.08345976 0.16964823 -0.003941709 -0.057674896 -0.039019097 -0.09291725 -0.074667014 -0.10514142 0.023717925 -0.07794994 -0.11279321 0.05194561 -0.01553106 0.09803972 0.1928492 0.056679986 0.09833547 -0.07122532 0.10586096 -0.14045821 -0.025710754 0.07659127 0.024122104 -0.11733925 -0.013424745 -0.16004749 -0.07470066 -0.10913308 0.0584426 0.10947854 -0.10079676 0.014765055 -0.089977875 -0.16408664 0.0033712208 -0.011652494 -0.017310468 -0.033005204 0.009609795 0.10819396 0.03688334 0.07284735 0.1675866 0.030576736 0.013463759 -0.045517936 -0.005479278 0.038315702 -0.10930157 -0.015195515 0.075792596 0.10697718 -0.019468803 -0.040678516 0.14736046 -0.19721845 0.17356384 -0.18583873 0.050781954 -0.06245034 -0.24285571 -0.034682516 -0.10472377 -0.06859615 0.15099005 -0.09205509 0.074072085 -0.04774317 0.08781223 0.15193321 0.034482468 0.016425183 -0.13377696 -0.18650527 0.124195196 0.018594664 -0.06631746 0.031712312 0.020513939 -0.13371572 -0.032931402 0.10347736 -0.17089184 0.1835651
and -0.058137584 -0.058845747 -0.10928273 -0.2139411 -0.015731543 -0.056841213 -0.037349287 0.08267118 -0.08254883 0.06141732 0.16951452 0.008941736 0.040611256 -0.13917254 0.10072613 0.10590092 0.05971371 0.08893949 0.009291142 -0.043879982 -0.047049884 -0.03730399 -0.09844247 -0.11032924 0.073353276 -0.12472334 -0.049800966 0.08995102 0.04160173 0.17365769 0.21132164 0.035021897 0.012428474 -0.05478795 0.07420041 -0.06403741 0.007728844 0.11811148 -0.03730444 -0.06315865 0.036926214 -0.0848343 -0.110537626 -0.08803998 0.051518798 0.1020774 -0.049404882 0.04784772 -0.05230899 -0.23090814 0.07966527 -0.016618693 -0.03222637 -0.046625614 -0.01004599 0.10364167 0.03772724 0.069448695 0.16277397 0.046145905 0.08246582 -0.021002244 0.038317084 -0.037289903 -0.18495399 -0.10830528 0.050682236 0.057671543 0.017356522 0.056347035 0.1010145 -0.16221726 0.10182998 -0.16361398 0.122058794 -0.036548108 -0.18072322 -0.106537305 -0.10392451 -0.14089106 0.08854571 -0.0697785 0.15656379 -0.16640663 0.09309935 0.21675497 0.02499769 0.09681515 -0.14672606 -0.17268202 0.097132824 0.10367343 0.04296634 0.046263307 -0.057652198 -0.017992267 -0.04240751 0.08850308 -0.085039675 0.21697345
gene 0.07914804 -0.05128397 -0.13009189 -0.21236035 -0.07342842 -0.07013192 -0.091186784 0.11469772 -0.05895866 0.010465447 0.058169417 0.016280003 0.047753945 -0.18096778 0.097556114 0.034669753 0.078264005 0.0527428 0.039997026 -0.08896979 -0.09946935 -0.057429772 -0.1259244 -0.00060162763 -0.025927158 -0.048278082 -0.07395362 0.099196516 -0.04701683 0.20005874 0.09448647 0.032122143 0.0029101602 -0.07195522 0.014459476 -0.08369195 -0.011881433 0.10446567 -0.09434978 -0.013535571 0.07157256 -0.13674347 -0.013841439 -0.105412565 0.04134272 0.09962071 -0.0945568 -0.013888934 -0.063653514 -0.11667659 0.03821277 0.023929032 0.012537939 -0.0033438168 -0.024082726 0.010836204 0.102169916 0.095924586 0.2149726 -0.013518225 0.11618703 -0.05360129 -0.077848434 -0.03690902 -0.1716209 0.017030234 0.103978045 0.1393098 0.024122251 -0.02189373 0.13313936 -0.19999999 0.1425597 -0.19308533 0.10180107 0.0020993187 -0.23684645 -0.10169692 0.008344116 -0.12119188 0.08495305 -0.09863542 0.05735473 -0.16873324 0.13610491 0.22878787 0.0337454 0.055067956 -0.11692835 -0.18700774 0.122047834 -0.017504312 -0.043044508 -0.033482306 -0.066391066 -0.089245565 0.07203806 0.1008173 -0.07968492 0.18696557
a -0.00033454268 0.0040459516 -0.09635758 -0.1377552 0.04685934 0.011168988 -0.054027908 0.048778318 -0.17726772 0.083134875 0.15950066 -0.0061397487 0.13077098 -0.08906228 0.050525308 0.082647726 0.13141851 0.10637341 -0.048362993 0.020926762 -0.058110412 -0.036645304 -0.15564497 -0.020771958 0.057057794 -0.15223369 -0.14851056 0.052744463 0.053924687 0.08269589 0.1369097 0.058191862 -0.009154304 -0.07091738 0.10567516 -0.16805944 0.0011248617 0.005450649 -0.016194383 -0.017195053 0.062053207 -0.08369982 -0.05532138 0.005565429 0.014915769 0.15526594 -0.09186059 0.007540937 -0.0701499 -0.20843343 0.08188198 -0.04172739 -0.0120272795 -0.01664142 -0.005626125 0.046588562 0.11133703 0.07513367 0.15094702 0.07140059 0.08297637 0.051967442 -0.008702779 0.039650876 -0.18438126 -0.07669194 0.09956944 0.15874545 0.02736778 -0.030283134 0.121061005 -0.1637532 0.12615742 -0.21664514 0.034932137 -0.057880133 -0.20116125 -0.059158534 -0.022867158 -0.075093724 0.12562571 -0.07499916 0.048301805 -0.13450922 0.07581857 0.21387228 0.08369471 0.11011499 -0.1500046 -0.14646943 0.13288459 0.07336684 0.038464736 0.027360938 -0.02832578 -0.061326116 -0.050863616 0.13006651 -0.16447513 0.21221662
months 0.0025212367 -0.057569444 -0.15045978 -0.2190085 -0.041471697 -0.0358477 -0.085846424 0.04445175 -0.15790349 0.049585994 0.16001487 0.0043037855 0.07336494 -0.09529778 0.0045386823 0.11227051 0.06425737 0.16791195 -0.061535086 0.012592817 -0.024056287 -0.057674672 -0.15622903 -0.014465523 0.06360376 -0.17153032 -0.15318505 0.10679337 0.056178015 0.15716632 0.17542045 0.045016617 0.07118209 -0.061320722 0.16095366 -0.067752585 -0.035714503 0.09273536 -0.04439035 -0.053256676 0.0553025 -0.08391075 -0.08416724 -0.058473982 0.038050275 0.16172722 -0.01831379 -0.00814526 -0.05375275 -0.21177967 0.0051236055 -0.051554043 -0.024109162 -0.051775318 0.09870543 0.062490493 0.077593945 0.03249416 0.16442028 0.09442502 -0.015054354 -0.0100088995 -0.027552968 -0.020014927 -0.1384272 -0.05705143 0.0530317 0.08540222 0.016086243 0.025814625 0.09316776 -0.19701646 0.11551801 -0.2016944 0.04690223 0.03988982 -0.19177212 -0.108754955 -0.056327287 -0.14670599 0.08899749 -0.077253275 0.064434454 -0.15917665 0.034561917 0.20712216 0.061431024 0.047412198 -0.07225966 -0.14548567 0.054945063 0.037028104 -0.05126746 0.04206547 0.041127086 -0.08482695 0.025742827 0.108626895 -0.14354767 0.20661908
neu 0.0056615965 -0.019874362 -0.12853281 -0.1421795 0.012643645 -0.006675016 -0.08344691 -0.023501366 -0.14480722 0.016685007 0.118218414 -0.01649687 0.14239483 -0.16461049 0.08236107 -0.009664705 0.14858966 0.15614875 -0.0019315537 0.015288886 -0.095842704 -0.07119113 -0.1240191 -0.06776998 0.012888301 -0.19312038 -0.0891157 0.08878114 0.023700645 0.09667799 0.082732245 -0.013865089 0.008509233 -0.10271337 0.044711348 -0.04111026 -0.079558164 -0.0033732066 -0.04492977 -0.111141056 0.04381348 -0.05109467 -0.03919291 -0.028490946 -0.03661758 0.1578735 -0.074730515 0.013589243 -0.10669276 -0.12510379 0.11845064 -0.032445207 -0.13622716 -0.12199542 0.017263481 0.16614623 0.122408755 0.08565597 0.18724023 0.028008336 0.05376976 0.043069284 0.062265214 -0.03130175 -0.20937406 -0.0072623603 0.05156282 0.093958534 -0.08903989 0.06491715 0.08467615 -0.09300474 0.1921034 -0.0729552 0.13868709 0.01411542 -0.26056218 -0.07467255 -0.05743858 -0.10427395 0.0737977 -0.06657403 0.1351821 -0.08504944 0.13586791 0.22334804 0.09301279 0.013134968 -0.1695128 -0.051688395 0.12631802 0.026929876 -0.02020414 -0.051345393 -0.07054408 -0.106239095 -0.07030915 0.13280302 -0.04990671 0.177176
between 0.0437276 -0.003930083 -0.04807546 -0.22405677 -0.028366294 0.003209065 -0.03543492 -0.005920638 -0.102385715 0.00038443346 0.10476487 -0.013205023 0.070158385 -0.16423386 0.07170191 0.09424308 0.13278833 0.11895471 0.0075009502 -0.09094059 -0.07801753 -0.050318096 -0.13353226 -0.06410942 0.008239336 -0.07100627 -0.14429837 0.0694836 -0.021490742 0.12975551 0.1422887 -0.027951816 0.019588834 -0.12279904 0.0937836 -0.1377364 -0.04162598 0.05522241 -0.069388635 -0.069006555 0.024464088 -0.13594753 -0.08298517 -0.08646756 -0.047835946 0.17264979 -0.052793745 0.049450636 -0.04198972 -0.16071089 0.07769446 -0.04801593 -0.011321558 -0.060873933 -0.005895652 0.14310491 0.09981493 0.061515246 0.13621593 0.09155807 0.09105639 0.037752572 0.04857064 0.059343092 -0.12913106 -0.07127321 0.09054361 0.14833218 -0.03551244 0.04236881 0.13725007 -0.18161312 0.17159459 -0.14507173 0.094252855 -0.003731823 -0.2329412 -0.12353475 -0.06684202 -0.07217488 0.15365662 -0.033195566 0.084596224 -0.14050391 0.119646125 0.18438968 0.08410405 0.08302357 -0.06102744 -0.14081834 0.1275384 0.023869798 0.038828164 -0.030119086 0.005237483 -0.09811894 -0.0050398298 0.13043422 -0.08793636 0.23384365
to -0.087225504 0.09150497 -0.13588811 -0.22211346 0.031214075 0.0440593 -0.08962135 -0.06220188 -0.0039126067 -0.031219777 0.0053099236 -0.09371985 0.066008486 -0.18057813 0.13089217 -0.0024441942 0.018121315 0.15804859 -0.07136187 0.031259265 0.012827857 -0.11114816 -0.18433277 -0.061545454 0.041286044 -0.16823223 -0.15662237 0.13750406 -0.018216217 0.1999644 0.2122024 -0.020732032 -0.05323512 -0.05609848 0.06821548 -0.13175204 -0.020211553 -0.009633773 0.071821794 0.009173206 0.14093107 0.010583037 -0.0436878 -0.007542918 -0.025046082 0.18643028 -0.028290866 -0.08556783 -0.117418766 -0.22628419 -0.010713678 0.028118301 0.02743735 -0.14220963 0.098451525 0.062218376 -0.0062362035 -0.043526806 0.17023812 -0.0072425157 -0.019577667 -0.06331466 0.032662723 -0.05034896 -0.095721774 -0.06268767 0.1492953 0.14630255 0.08200835 0.05765025 0.0018808938 -0.053864356 0.12929183 -0.06512232 0.09000454 -0.09844708 -0.14229274 0.009148168 -0.11462729 -0.103346616 0.070963025 -0.0050992006 0.018914979 -0.111299925 0.1082175 0.03793864 0.13042755 -0.0032357296 -0.1286206 -0.058302015 0.07427628 0.08146231 -0.053075615 0.10861542 -0.07433869 -0.12394237 -0.09751642 0.0112492675 -0.19797961 0.20244145
in 0.05502388 0.037205838 -0.16311921 -0.23049082 0.02586872 -0.06429625 -0.096854836 0.09909345 -0.062696934 0.022883156 0.049202863 -0.05172303 0.09614634 -0.05680896 0.073016286 0.04261938 0.14028162 0.130106 0.04478945 -0.101050705 -0.07202273 -0.12056172 -0.117714904 -0.0082526505 0.032595802 -0.09944928 -0.14366311 -0.02029901 0.0498943 0.075983435 0.21606056 0.024824778 0.003803901 -0.024004836 0.14924231 -0.07378907 -0.05310448 0.040637 0.0039562527 -0.11705426 0.0046063615 -0.14489166 -0.0036907613 -0.03309279 0.0016883297 0.19992267 0.0034832146 0.013813512 -0.04135442 -0.19084227 0.041946918 0.045880415 -0.08622156 0.0024801434 0.021425415 0.101876944 0.055392124 0.10577375 0.19153288 -0.0024053666 0.051023215 0.02121209 -0.020305675 0.043774813 -0.16103955 -0.0029609664 0.12152083 0.10327174 -0.008799546 -0.050433986 0.07363062 -0.2286255 0.17684945 -0.21120271 0.0446718 0.0604566 -0.24410513 -0.08336518 0.03395197 -0.09965002 0.031700354 -0.10959055 0.04830283 -0.14239888 0.11646144 0.1646193 0.008902186 0.073428944 -0.13736445 -0.08758066 0.1289097 -0.01813465 -0.059709348 -0.0020272 -0.053821974 -0.026951218 -0.012725154 0.11071509 -0.19851673 0.110178314
12 -0.018470708 -0.0028887477 -0.06859944 -0.15306911 0.011159867 0.026662454 -0.05659734 0.030797876 -0.17447735 -0.014534992 0.1630611 0.015798943 0.09776262 -0.14817457 0.051049054 0.03992697 0.064746015 0.08752833 -0.02679895 -0.052218713 -0.042921416 -0.14155607 -0.10270746 -0.082120806 0.08871603 -0.12304365 -0.085249215 0.09206542 0.012961649 0.14927535 0.21661025 0.05020319 0.059345838 -0.039327558 0.08779859 -0.099229164 -0.0049945605 0.09411348 -0.03213208 -0.12698548 0.08962195 -0.15721773 -0.128322 -0.10955826 0.045528863 0.09903286 -0.10415886 0.06696504 -0.020373706 -0.22349322 -0.012389548 0.020955551 -0.044478443 -0.00052733964 0.00720414 0.13894624 0.09056132 0.08521917 0.110204384 0.06935759 0.036318216 0.06792845 0.018843058 -0.040259983 -0.19054297 -0.102843605 0.07601682 0.09513097 -0.017009344 0.038859922 0.14243197 -0.14834397 0.14646544 -0.19923961 0.112361684 -0.052202035 -0.22955063 -0.04536332 -0.05430847 -0.11768917 0.14861274 -0.07961238 0.039537385 -0.11275073 0.09389718 0.16117358 0.07917536 0.07758308 -0.086021684 -0.17226021 0.1159613 0.015691664 0.017169653 0.034436144 -0.009176115 -0.042699452 -0.009321107 0.03405039 -0.12244367 0.21085002
history 0.017649718 0.0450914 -0.12315602 -0.13287109 0.079531305 -0.0034318361 -0.014367684 0.050076503 -0.107167736 0.07046004 0.09672987 0.058151003 0.10963262 -0.11255341 0.040310852 0.12130624 0.061053965 0.15626393 -0.06683236 -0.04907625 0.02031144 -0.11361296 -0.06799367 -0.043219794 0.048233535 -0.0629649 -0.05409484 -0.020845335 -0.0555081 0.16242373 0.2280309 -0.06889616 0.0032400757 -0.038750343 0.09341617 -0.17877074 0.047406424 0.03374534 -0.011698296 -0.08943614 0.065422155 -0.17134199 -0.12541392 -0.05016721 -0.029913697 0.13718446 0.033925083 -0.05652403 0.018939255 -0.11284465 0.070479915 -0.05969762 -0.12537268 0.011264433 0.10521968 0.13847907 0.028994389 0.1083306 0.105188034 0.102951035 0.07061967 -0.059730835 -0.019040802 -0.05941141 -0.11592991 -0.00011024511 0.15242797 0.16906793 0.07300228 0.046285916 0.2017145 -0.17085667 0.13114974 -0.18664324 -0.0004118788 -0.09636565 -0.15735464 -0.10042047 0.023657775 -0.11400975 0.14690769 -0.057611592 0.1638252 -0.13114466 0.06701036 0.15806831 0.12109936 0.00488512 -0.13627462 -0.13174978 0.045068894 -0.0036083215 0.03215334 0.063616395 -0.033448916 -0.06544353 -0.02029166 0.09765303 -0.072159804 0.24851249
p30(II) 0.04526404 0.027088253 -0.10022427 -0.123586565 0.013987052 -0.028387446 -0.009586332 -0.028735956 -0.1824419 0.08633278 0.08735435 -0.03979362 0.14905012 -0.04331253 0.0019924117 0.108859025 0.10893593 0.1468862 0.019185832 -0.10144579 -0.0939043 -0.024434729 -0.11147226 -0.097561084 0.11368294 -0.1390162 -0.11906669 0.027603079 0.05693798 0.15231454 0.13683516 -0.059560917 0.065861695 -0.081056535 0.04350413 -0.10762042 0.04564451 0.10563588 -0.058651935 -0.11178814 0.0026491974 -0.1133021 -0.12536588 0.004129492 0.039180584 0.16077912 -0.0658947 0.100305535 -0.034162723 -0.19007343 0.107208945 -0.08925834 -0.14014244 -0.029636087 -0.0263852 0.13912272 -0.024299307 -0.019046258 0.15931946 0.045122027 0.04712575 0.07983965 -0.024846165 -0.0147565035 -0.10650624 -0.04689729 0.06241707 0.08527896 0.034042623 0.016877446 0.1448368 -0.20975551 0.17930035 -0.15840486 -0.016055118 -0.008259939 -0.22553359 -0.1058144 0.037333306 -0.11719603 0.06524072 -0.12083438 0.1308699 -0.10842405 -0.0047271885 0.22119538 0.079452604 0.07115688 -0.035547607 -0.114196695 0.15029728 0.025416132 -0.030738506 0.008520707 0.03454022 -0.022115955 0.03710937 0.13704623 -0.13983914 0.19938973
mean -0.07318662 -0.040019225 -0.12611125 -0.18673988 -0.04512346 -0.06276367 0.03410352 0.083323576 -0.07978887 0.07902272 0.105276845 0.03936748 0.12389702 -0.1209081 0.10169678 0.08336282 0.15874599 0.02070297 -0.047310516 -0.112857476 0.067426324 -0.09513586 -0.121629335 -0.08598574 -0.0034592825 -0.08696745 -0.08882778 -0.0011346961 0.047700074 0.055715386 0.07825622 0.061546613 0.09070046 -0.018297167 0.047994822 -0.09488397 -0.029929653 -0.006912242 -0.09892116 0.01762016 0.0042124875 -0.15566915 -0.021142384 -0.006754892 0.08980443 0.19981618 -0.11821434 0.011367058 -0.027993541 -0.18429449 0.07281033 -0.0206187 -0.12923554 -0.079445474 -0.039135277 0.06631875 0.03611237 0.05812331 0.16287681 0.091968976 -0.057100695 -0.04639741 0.050854877 0.080232605 -0.10414086 -0.054583248 0.17245033 0.13635822 0.05994266 -0.047375668 0.06773051 -0.2039293 0.17833352 -0.13067693 0.09498774 0.025241965 -0.19777182 0.007683266 -0.09566559 -0.024557728 0.16804627 -0.09714649 0.14248589 -0.15331353 0.12404379 0.20977557 -0.028772926 0.036038987 -0.16446215 -0.1510632 0.052782923 0.01995919 -0.08049058 0.0018869383 -0.102956735 -0.12985021 -0.08629522 0.10297565 -0.08331768 0.17502964
assays -0.08397203 0.061157774 -0.05933373 -0.2637547 0.095859095 -0.02489242 0.015999964 0.0426409 -0.0752652 0.060217682 0.16103604 -0.09343306 0.04840793 -0.026342804 0.103365056 0.033011384 0.021654502 0.09955228 0.01953604 0.026647832 0.009518859 -0.040060967 -0.15805437 -0.09035254 -0.013356618 -0.16144173 -0.12414027 0.043536976 0.080628805 0.094271705 0.06543946 -0.06119485 0.03071621 -0.1033686 0.087070614 -0.15480873 -0.077889055 0.04199125 0.07280287 -0.116730355 -0.009714746 -0.025349252 -0.12006649 -0.08430712 -0.023806324 0.14343096 -0.10660402 0.10334127 0.021210408 -0.073134094 0.07638043 -0.052516147 -0.095659256 0.01649602 0.13660409 0.09988467 0.060473945 0.08786103 0.24401167 0.037151 0.041606158 0.093908764 -0.08629307 0.033658374 -0.036641154 -0.064346135 0.06964082 0.07180748 -0.045321036 -0.009611116 0.17636894 -0.21271397 0.116278015 -0.13305648 -0.005600481 -0.092848286 -0.14040434 -0.026692808 0.05349396 -0.17886983 0.10802913 -0.16794412 0.16850765 -0.1513915 0.07760995 0.17437974 -0.020650016 0.09942357 -0.08130736 -0.10288748 0.18894026 -0.03444823 0.023741612 0.06904845 0.034732804 0.0146835325 0.024789799 0.13238502 -0.19917144 0.0849698
CBP -0.040631667 0.024370179 -0.14580762 -0.2200712 0.03344348 0.012650117 -0.06141743 0.035498943 -0.06603627 0.08846125 0.116826855 0.021896888 0.12598027 -0.07941169 0.09547107 0.028714158 0.14283377 0.13531972 -0.08891727 -0.11561852 -0.011058851 -0.04854996 -0.18173599 -0.03779428 0.007078248 -0.16794157 -0.08750433 0.08988561 0.059464164 0.13049673 0.12039164 -0.022388129 0.067989364 -0.07136828 0.17756811 -0.17462693 -0.07768088 0.096228436 0.036572974 -0.049486797 0.019711789 -0.08851612 -0.03149221 -0.12325884 -0.051734097 0.14217205 0.032716874 0.011453904 -0.08403019 -0.08007437 0.031101245 -0.102087475 -0.052505054 -0.069854185 0.045182817 0.021497108 0.08890147 0.10438652 0.08288044 0.060859196 0.089380234 -0.021054843 0.03438745 -0.0062402133 -0.08559954 -0.041584283 0.13891129 0.07337076 -0.07385563 0.016503174 0.04698488 -0.22003415 0.11021566 -0.11947873 0.057896424 -0.0029347858 -0.22781615 -0.016754348 0.0371569 -0.16820133 0.022420568 -0.093694106 0.1069573 -0.1649582 0.10429907 0.095648296 0.050653234 0.08557146 -0.10773693 -0.19625548 0.1478885 0.04533151 -0.07709907 0.015489394 0.042303305 -0.09717069 -0.030450456 0.1407908 -0.16879487 0.23070082
chain 0.026892278 0.06012182 -0.15580781 -0.18945952 0.0001686134 0.06879995 -0.104576394 0.060654387 -0.18574233 0.115557134 -0.029128658 0.034987114 0.041958496 0.012959732 -0.088149615 -0.00080177194 0.17198771 0.10430242 -0.049097914 -0.107642986 0.09060029 -0.15188716 -0.03669236 0.027050586 0.074453644 -0.21421687 -0.15105869 -0.053983163 0.08414259 0.01221715 0.102539115 -0.051578216 0.15174425 -0.12883812 0.035395354 -0.17143133 0.022779686 0.055616815 0.054792125 0.044171136 0.13676697 -0.052074395 0.05966469 -0.09362925 -0.037694547 0.029840034 -0.059804842 0.016039466 -0.16316585 -0.088627264 0.07781258 0.08426011 -0.14475474 -0.13036722 0.10060308 0.054613423 -0.017453374 0.09188452 0.056776453 -0.062814325 0.04725306 -0.06982234 -0.11720066 0.111269355 -0.22414932 -0.020341696 0.18737634 0.17120819 0.037873574 0.052957073 -0.015530003 -0.018580172 0.054562226 -0.0994397 0.09639925 -0.07973347 -0.21731561 -0.06298032 0.015213761 -0.103373766 0.18058845 -0.029814275 0.010133518 -0.078190066 0.14812192 0.04298154 0.141276 0.1270952 -0.038767196 -0.08147289 0.20638897 0.0061487663 -0.03336724 0.013618232 0.02551096 0.0033189654 -0.08180789 0.16237102 -0.00475844 0.0928723
intraocular 0.029315596 -0.028903596 -0.025201088 -0.12209637 -0.13160725 0.044097457 -0.16110288 -0.046103906 -0.1366578 0.14192313 0.1067882 -0.017647583 -0.04437377 -0.008844674 -0.11531853 0.18501127 0.026310897 0.003943002 0.07937577 -0.14038287 0.060818713 0.0704697 -0.051664386 -0.03838048 0.060852163 0.07458002 0.027028937 -0.10407499 0.041439284 0.16358598 0.16418159 0.11640424 0.013077809 -0.18903023 0.1116499 0.050430186 0.108430654 0.13568206 -0.16175212 -0.18054943 -0.059664074 -0.11875734 -0.02674691 0.01744209 0.104399554 0.12013273 -0.06576372 0.10066939 0.0960179 -0.06106828 -0.06252235 0.0035270117 0.0958239 0.06783323 0.11866979 -0.09437172 0.09730192 -0.09064038 0.14273037 0.03464045 -0.025865491 0.074166656 -0.038059734 0.10142753 -0.096497014 -0.102228485 0.026788868 -0.010399862 0.019578155 -0.004459475 0.21116686 -0.0026796008 0.07343477 0.061688315 -0.008360656 0.113314226 -0.09062744 -0.11705036 -0.14357573 -0.18743703 0.13392116 -0.15261279 -0.04721535 -0.11835356 0.16633739 0.05307707 0.14262587 0.13289109 -0.18213291 -0.09724278 -0.088994734 0.0036933206 -0.0068021175 0.07680324 0.12432431 0.108210124 0.11019667 -0.06435674 -0.07121437 0.022821672
heavy -0.04372727 -0.04416465 -0.13925903 -0.24910152 0.070307925 -0.041571587 0.003508021 -0.013193512 -0.10776626 0.03763437 0.14214644 -0.0740284 0.08620777 -0.1532794 0.07762795 0.11158258 0.10831262 0.09385158 -0.019373886 0.0068224804 0.00038715004 -0.081303425 -0.18987387 0.009034081 0.034981836 -0.19293423 -0.056645405 0.10947742 0.03618194 0.20692536 0.09348211 -0.004226854 -0.040520467 -0.09180326 0.11419208 -0.122519374 0.07065516 0.08711806 -0.0109131755 0.00557053 0.08337879 -0.12989135 -0.05657738 -0.032747984 -0.014311651 0.15530948 -0.0070316694 0.09910582 -0.12976027 -0.1534774 0.122291446 -0.07988801 -0.14290066 -0.049562342 0.039857976 0.1819096 -0.016160546 0.11534032 0.1745184 -0.0068464163 0.085533276 -0.028318811 -0.06462488 0.0116134435 -0.19462456 -0.082798995 0.12975706 0.12530993 -0.07834804 0.028988456 0.16540128 -0.09343449 0.089009464 -0.095387936 0.062470805 -0.044889856 -0.24467993 -0.08146695 -0.0015881384 -0.028727906 0.10862357 -0.077828564 0.016279727 -0.040256605 0.12584837 0.08349792 0.025043935 0.08039142 -0.024139607 -0.1003523 0.05858711 0.06781439 -0.0036369667 0.019542327 -0.01887247 -0.13236369 -0.0681979 0.14217761 -0.055407442 0.18817094
explore 0.015720066 0.026595507 0.0061819693 -0.218522 0.059515916 -0.11879852 -0.04703291 0.074421026 -0.14816962 -0.087471634 0.044242445 -0.026815841 0.092121795 -0.079530716 -0.012958411 0.048168268 0.037516713 0.031852916 0.08704559 -0.12617339 -0.09052286 -0.022441655 -0.13858588 0.043852456 0.045503188 -0.08681128 -0.11576847 -0.048943292 -0.100501925 0.0722427 0.09744606 -0.036133327 0.025676643 6.0749215e-05 0.19802757 -0.023799045 -0.01659595 0.085153736 -0.113983005 -0.045097757 -0.03959281 0.0055272058 -0.09567644 -0.054883778 0.079515494 0.20469351 -0.006814616 -0.06455509 -0.14171633 -0.098832324 0.12900843 -0.13267069 -0.042682976 -0.10040197 0.0732916 -0.022085004 0.03241702 -0.00026030216 0.048245873 -0.08464132 -0.06395464 -0.042753924 0.00078994234 0.042174343 0.006767277 -0.17572771 0.035416875 0.1126403 -0.04536914 0.007251299 0.20067137 -0.11051502 0.08076974 -0.19881298 0.1460863 0.070397004 -0.22884029 -0.1550122 -0.08603425 0.05055605 -0.011087137 -0.03135341 -0.018010084 -0.1639462 0.12040838 0.20916155 0.15586288 -0.023585508 -0.08430593 0.010219701 0.18412253 0.05617039 -0.08186678 0.0037671484 -0.07774405 -0.065603256 -0.121552944 0.072173014 -0.2075127 0.2139132
patients -0.008985499 0.0010683615 -0.10720039 -0.2429623 0.062815346 0.06209774 -0.09820074 -0.044452056 -0.10261163 0.05230352 0.039388694 -0.02166958 0.03495273 -0.03870478 0.08227723 -0.007218546 0.09517687 0.119459145 0.015788594 -0.09123943 0.0024974563 -0.06949336 -0.036181945 -0.14824203 -0.014934883 -0.11668291 -0.04038874 0.13211562 0.083964735 0.1374047 0.20143868 -0.060706995 0.06087698 -0.10080375 0.048399534 -0.17075498 -0.05241327 0.05986881 -0.0012379045 -0.042966653 0.060012218 -0.07760071 -0.044991408 -0.049150616 0.007264199 0.12432752 -0.016672837 -0.039642684 0.004837174 -0.07544424 -0.02023426 -0.10796169 -0.07340125 -0.013125971 -0.034418143 0.027142735 0.07948085 0.09144515 0.1708412 0.10964198 0.004286706 0.0959492 0.072567634 -0.037885536 -0.19986454 -0.14510697 0.12656929 0.035031136 0.024597067 -0.05986018 0.1944681 -0.22928235 0.17944556 -0.21680047 0.086434476 -0.06568426 -0.17531687 -0.023203257 -0.11321013 -0.13756956 0.049070317 -0.1449665 0.16376103 -0.05196567 0.13553503 0.11920492 0.05465453 0.067347735 -0.064469494 -0.15972732 0.13847862 0.10833211 0.036346283 0.014329035 0.054736253 -0.06072775 -0.014761866 -0.0031184503 -0.1935097 0.11671921
24 0.057944033 -0.02976279 -0.047112692 -0.14557014 -0.03308507 0.019708574 0.003067044 0.10739559 -0.08304002 0.014923416 0.087497115 0.015901363 0.109286144 -0.17703967 0.025683122 0.066696204 0.14559413 0.15034284 -0.02831869 -0.05257112 0.027368495 -0.05666049 -0.11326386 -0.06944046 0.06492066 -0.13257971 -0.039319124 0.041709937 -0.0044008736 0.07652787 0.11916318 -0.0445588 0.007783438 -0.03866068 0.122398056 -0.13356625 0.035060305 0.08662597 -0.06077079 -0.010345335 0.031892903 -0.18821563 -0.087034956 -0.061527923 0.027335003 0.07522705 -0.09242279 0.041922033 -0.071765535 -0.22418903 0.07634981 -0.060821448 -0.06251566 -0.043553185 0.020614535 0.09305699 -0.010737751 0.05961007 0.21147849 0.088969626 0.10428706 0.061626203 0.00574339 -0.03883454 -0.12246695 -0.04878085 0.097126506 0.09398488 -0.06899858 0.082053415 0.17770916 -0.21756133 0.059598222 -0.21059899 0.11106849 0.0043323897 -0.19004871 -0.11238798 -0.057522714 -0.101205885 0.13533704 -0.13052477 0.11537838 -0.11204819 0.14439619 0.09626139 0.11384964 0.07730165 -0.11445288 -0.1663452 0.1012535 0.10047732 0.035244115 -0.05647014 0.0323978 -0.06549524 -0.009784351 0.14561267 -0.15639505 0.20120068
ApxII -0.056894034 0.0666197 -0.056473684 -0.20472565 -0.045598328 -0.020780198 -0.002711649 0.088660195 -0.10982142 -0.0069258083 0.12612435 -0.08151993 0.063672945 -0.20012309 0.11290634 -0.006003727 0.16997935 0.05994308 -0.09274251 0.02225824 -0.053748474 -0.16346906 -0.049349207 -0.08536724 -0.010784964 -0.1731414 -0.11757153 -0.034204565 -4.276186e-06 0.1522516 0.1392492 -0.072699994 0.030530483 -0.009272342 0.04822839 -0.05097823 -0.06520709 0.10365557 0.020692796 -0.11008761 0.083548374 -0.16377616 -0.094783396 0.022599759 -0.0024850478 0.20000745 0.019848969 0.05946556 -0.05470243 -0.19663471 0.12517014 -0.032881603 -0.030551512 -0.10230302 0.055792056 0.060430195 0.10189249 -0.016971733 0.2056769 -0.04642615 -0.05318398 0.09164568 0.03962724 0.036984053 -0.05121878 -0.06309243 0.19051668 0.12194658 -0.08889419 0.05397072 0.109348506 -0.23822471 0.1937828 -0.10645681 0.09148881 0.03421737 -0.15119721 -0.04566846 0.003207747 -0.14534563 0.02269454 0.0017759516 0.017036008 -0.020912739 0.02735655 0.13664399 0.04064523 0.0050038104 -0.04261157 -0.13805121 0.026287483 0.09521471 -0.021946048 0.019626563 0.015493491 -0.15750496 0.062466707 0.117525205 -0.14294246 0.21449806
by -0.05106855 -0.06327032 -0.16338906 -0.18981056 0.060800295 0.028247857 -0.0811867 0.08406838 -0.11312858 0.058372818 0.15915953 0.019929735 0.095890544 -0.06508549 0.10411507 0.13001308 0.1423229 0.16806696 0.029993067 -0.100932054 -0.043507013 -0.06959799 -0.051817592 -0.030879617 0.008103394 -0.18914646 -0.12333817 0.013784853 -0.03029545 0.09686363 0.21328187 0.04397393 0.059584398 -0.07820968 0.08714767 -0.11809684 -0.007200398 0.05744475 -0.07978531 -0.046197977 0.018140038 -0.14180225 -0.08012238 -0.06589038 0.065377094 0.08741999 -0.09791508 0.021728728 -0.12648664 -0.16709438 0.068095066 -0.055828527 -0.118396915 0.0014580846 0.012961659 0.1751394 0.12246245 0.094517924 0.1540682 0.07267482 0.094053395 0.0792802 0.028089793 0.016512215 -0.17700846 -0.092088304 0.07189732 0.109804004 -0.07075172 0.027740216 0.14564039 -0.1117581 0.09158136 -0.10586127 0.025207212 0.021048555 -0.15824416 -0.08009408 -0.10274809 -0.061153762 0.091590464 -0.09566563 0.089972824 -0.07676994 0.032496337 0.10883217 0.081975214 0.023178317 -0.14491276 -0.15765134 0.16630977 0.1116918 0.007254379 -0.000104656836 -0.004442783 -0.09185714 -0.005207838 0.024419997 -0.15290725 0.23543492
7) -0.048674665 -0.025747381 -0.14615503 -0.0693179 0.021336965 0.005703568 0.05188846 0.014389955 -0.12267296 0.0750788 0.012345944 -0.04688809 0.13153832 -0.03378469 -0.03504086 0.1072775 0.1687456 0.081067435 -0.016811742 -0.026939053 -0.05550498 -0.056889188 0.00034804305 -0.14632547 -0.050081193 -0.114907935 -0.031278066 0.1425443 0.023962868 0.20076764 0.23253913 0.0016970538 0.09850302 -0.09160974 0.06385391 -0.0711327 0.043496743 0.011296788 -0.08272304 -0.13182206 0.023596585 -0.07836711 -0.10471342 -0.023479987 0.014020662 0.14084211 0.0237872 0.019574057 -0.13421848 -0.1537482 -0.030928852 -0.09663766 -0.11383231 0.010975453 -0.037350796 0.12925068 0.114499815 0.101243466 0.15491927 -0.04465272 0.08470789 0.09960817 0.06637349 -0.002589587 -0.14788768 -0.07822904 0.012689195 0.06773365 -0.027627433 -0.079065144 0.041052673 -0.22080553 0.17508796 -0.22346008 0.14095889 -0.05889074 -0.24287081 -0.0712844 -0.08581675 -0.08175535 0.040615443 -0.015543916 0.13007827 -0.08673824 0.064296775 0.1877392 -0.03970915 0.102331825 -0.06981716 -0.143766 0.17360574 0.061864004 -0.09690741 -0.0712551 -0.003528948 -0.034098588 -0.036740795 -0.017730558 -0.1867764 0.09529628
41.6 0.0047354614 -0.0022409554 -0.12751871 -0.13492422 -0.010003014 -0.022989571 -0.02122833 0.030522393 -0.10861657 0.016092673 0.12625144 -0.02377023 0.12528685 -0.13757719 0.06104171 0.055018835 0.075759225 0.07352345 -0.07494969 -0.008745523 -0.0102924565 -0.06695309 -0.051940396 -0.09672692 -0.015039475 -0.18009618 -0.16351509 0.10295995 0.025024755 0.12212482 0.19819568 0.060722794 0.009350553 -0.11352405 0.14752822 -0.11909723 0.013845139 0.10102308 -0.0667139 -0.09417483 0.013972462 -0.14456505 -0.06283031 -0.023512967 -0.050893184 0.17484725 -0.025992593 0.022286655 -0.021063738 -0.222175 0.08193846 -0.06814424 -0.025409034 -0.0028148983 0.045406003 0.056491192 0.06482189 0.041614763 0.18410654 0.07552328 -0.002097555 0.059180122 0.033190805 -0.009295475 -0.16300397 -0.037948146 0.061899383 0.052855253 -0.0006078432 0.042720396 0.16993016 -0.15758443 0.12827823 -0.14162119 0.03247259 0.023366557 -0.24020955 -0.10803656 0.012348961 -0.10331987 0.10231757 -0.10445031 0.09446743 -0.14846122 0.09950557 0.22354476 0.08817573 0.057519544 -0.11928406 -0.15658215 0.11659395 0.059320245 0.0006149256 -0.031809364 -0.016227722 -0.13822804 -0.031719774 0.058290873 -0.17638241 0.19534893
both 0.009103552 0.027044386 -0.09905041 -0.19100821 0.028592298 -0.057346087 -0.014406126 0.0054964777 -0.17945068 0.012288971 0.17539613 -0.017575322 0.040380586 -0.18724632 0.08477393 0.06940833 0.14711194 0.09889537 -0.07961409 -0.01996465 0.0256558 -0.032262858 -0.052962057 -0.023815023 0.07317026 -0.092391424 -0.10704927 0.02274419 -0.060315657 0.14271276 0.18724446 -0.03066765 -0.015099862 0.0030331856 0.12016585 -0.07801796 0.03784626 0.04822373 0.028902907 -0.0877098 0.10469459 -0.11960416 -0.010716622 -0.056655813 -0.05074159 0.14978898 -0.0874433 0.083669536 -0.13100196 -0.14378059 0.106026694 0.024083378 -0.081758596 -0.100637786 0.087455116 0.0694527 0.10538289 0.11892769 0.2214801 0.0222196 -0.024772193 -0.0043103443 0.04821293 -0.0073412475 -0.15234947 -0.014303522 0.09418072 0.12944882 -0.054664884 0.008695456 0.04692958 -0.1926563 0.10587287 -0.13546246 0.06863089 -0.008732353 -0.22853899 -0.11186617 -0.099441625 -0.024037719 0.041130748 -0.11945846 0.117642485 -0.12853405 0.020447677 0.21008453 0.04321094 0.02911815 -0.12383435 -0.14894314 0.07490699 0.06301412 -0.02311312 0.056657214 -0.042334903 -0.09120483 0.02512366 0.12372616 -0.17943825 0.21356276
prophylactic -0.048181377 -0.036798365 -0.04950299 -0.18151787 0.026453337 0.053102493 -0.0013153078 0.013539369 -0.20407203 -0.03249665 0.09541385 0.030001907 0.07841891 -0.19230342 -0.0108623095 0.061178323 0.06522061 0.08911709 0.014292411 0.018281415 -0.07458082 -0.027439967 -0.11974185 -0.05895845 0.064961955 -0.161517 -0.17180379 0.12862228 -0.024332073 0.18297057 0.13226035 0.037985984 0.0066272537 -0.040642504 0.18367262 -0.14118455 -0.07247895 0.009117604 -0.06399733 -0.043109953 0.120906256 -0.14153144 -0.12953052 -0.044707306 0.07263245 0.14955105 -0.085939534 -0.031470876 -0.0010196564 -0.16590631 -0.01215386 -0.031036437 -0.008286667 -0.11007397 0.078161485 0.14953904 0.06379934 0.08425538 0.21502876 -0.0016543735 0.075625114 0.005280152 0.023905251 -0.009584293 -0.15109155 -0.13109288 0.16546135 0.16552526 -0.019752825 0.041752983 0.09539343 -0.18455683 0.09440967 -0.13486986 0.10652239 0.018954448 -0.18948595 -0.103257194 0.011755973 -0.04231331 0.10979588 -0.019498352 0.049022254 -0.1728636 0.06151823 0.11469587 0.006895234 0.019390732 -0.08017969 -0.097742625 0.06417922 0.070536874 -0.07315862 -0.060928803 0.028879717 -0.07690194 -0.0022959535 0.14972037 -0.17947787 0.13068858
as -0.07692557 -0.045261122 -0.030640272 -0.13818353 0.067668185 -0.09067165 -0.04213619 -0.04041969 -0.17831698 0.02300644 0.14914934 -0.00083172234 0.09027749 -0.18650207 -0.009198856 0.042544417 0.029921386 0.18764955 -0.1082629 -0.034030255 -0.036929425 -0.091763124 -0.1790599 0.0037376431 -0.024994243 -0.18282755 -0.07224236 0.11956632 -0.008727413 0.0692603 0.1688724 -0.05473482 0.013274697 -0.050899267 0.128056 -0.11046128 0.07173687 0.07629506 -0.06581155 -0.055247437 -0.024523484 -0.118225046 -0.024021484 0.031188633 -0.034799326 0.15860179 0.021020992 -0.043364093 -0.113479175 -0.07600925 0.0553914 -0.09449216 -0.13045014 -0.095937744 0.091018125 0.104168825 0.014602259 0.11745684 0.19959018 -0.033975597 0.079935454 0.055865332 -0.008876659 -0.042210348 -0.12428063 -0.081982486 0.15999365 0.12844507 0.08064493 -0.06721499 0.12401017 -0.1656639 0.15516394 -0.12339518 -0.013020979 -0.07348971 -0.087292425 0.007881336 -0.11347627 -0.10254453 0.17636192 -0.07594464 0.014195312 -0.18102175 0.1223428 0.21012336 0.0741351 0.0838121 -0.13698971 -0.13692264 0.08478378 0.009334639 0.051470794 0.049416285 0.005614082 -0.05629606 -0.044502433 0.1325001 -0.10503741 0.13960877
for 0.08062107 0.09230956 -0.009299455 -0.10530016 0.0699967 -0.049874164 0.0051590004 0.12065007 -0.20926636 0.047058035 -0.016419876 0.07843776 0.047698718 -0.17699285 0.087671846 0.0044862377 0.094411865 0.18439262 -0.11846908 0.0398472 -0.00021217226 -0.07579257 -0.0566015 -0.16582449 0.051693704 -0.07926804 -0.08309374 0.011711279 -0.09207594 0.21600823 0.22938216 0.01216868 0.032181293 -0.06704668 0.13302669 -0.07414813 0.04719556 0.039212674 -0.040013824 0.015598267 -0.010817273 -0.09881689 -0.13467944 -0.02383259 0.05937473 0.021606332 0.012768244 -0.009196516 -0.07307935 -0.110037625 0.12881668 -0.09004477 -0.09468566 0.031420555 0.030612918 -0.016285274 -0.02830696 0.11407283 0.1053548 -0.0084003145 0.005782472 -0.051600847 -0.0064619463 0.08946643 -0.20993882 -0.11447594 0.15715903 0.15510944 -0.017468857 0.044114567 0.12920529 -0.16469511 0.14006647 -0.11764966 0.1537627 -0.04699992 -0.08003489 0.044788614 -0.085517116 -0.15222608 0.1810189 -0.031018775 0.13211794 -0.06652904 -0.01669038 0.22746563 0.00068069075 -0.029709015 -0.037309308 8.5587984e-05 0.14542627 -0.02762853 -0.10861483 -0.07231341 -0.09466325 0.018302064 0.051331993 0.046176765 -0.19876073 0.17433158
extracellular -0.031472698 -0.071284436 -0.06012715 -0.079379946 0.07057011 -0.05579055 -0.011449607 0.1021844 -0.19208488 0.05597886 0.09622954 -0.020727199 0.12568364 -0.118060626 0.08351545 0.12741318 0.16192184 0.09520938 0.061939083 -0.04861951 0.071008325 -0.15735033 -0.17244552 -0.07045572 -0.002534588 -0.17248483 -0.15951635 0.0153644215 0.029182397 0.1570966 0.17665306 -0.04233953 -0.001502616 -0.01210827 0.088772014 -0.11391439 -0.04764373 0.10775268 0.009588735 -0.10186934 0.09802182 -0.10740137 0.0031339875 -0.055988986 0.03867379 0.074626386 0.019952692 -0.031034544 -0.031414866 -0.11672254 -0.028144978 -0.10242307 -0.13008267 -0.040515415 -0.018864756 0.15880045 0.05385672 0.12023906 0.19793552 -0.047802534 -0.047737148 0.05622184 0.00031291897 -0.013139854 -0.11132976 -0.14213024 0.12919167 0.019360878 -0.03450611 0.08125712 0.15091123 -0.10422408 0.13802145 -0.13938358 0.036153577 -0.0108431345 -0.21435381 -0.07210346 0.05580329 -0.1338199 0.13700865 -0.08545578 0.16727898 -0.13810973 0.06812371 0.1735609 0.023523543 -0.016300162 -0.0043994915 -0.14419985 0.1438329 0.09156399 0.075023934 -0.005447539 -0.077028856 -0.028119547 0.0444531 0.054895222 -0.10713305 0.198956
determined -0.044872805 0.10157674 -0.07204017 -0.15783101 -0.052263755 -0.0527132 -0.027463155 0.046234675 -0.008755079 0.123853326 0.116146274 -0.13129215 0.1545796 -0.19824244 -0.00026876715 0.14568593 -0.011318363 0.1609482 -0.1134398 0.059688028 -0.10484064 -0.011354445 -0.170653 -0.023319138 -0.011348397 0.011633706 0.02221685 0.03813008 -0.006283433 0.16884027 0.19946314 -0.05179045 0.019047985 -0.1320399 -0.0004518677 -0.16958407 0.10014202 0.06374896 0.05412509 -0.0957984 0.07481963 -0.15060586 -0.13902843 0.059255034 -0.030711787 0.09391008 -0.08720955 -0.0009708745 0.014054936 -0.038774665 -0.0615939 -0.09544574 -0.1424106 -0.1568585 0.13188685 0.010920648 -0.06862886 0.06710445 0.03087476 0.06061157 -0.04221002 0.0893883 -0.08404304 0.05462118 -0.2107239 -0.14111848 0.017757615 0.18207851 0.09270198 -0.0777427 0.18135807 -0.06036326 0.021612128 -0.14038232 -0.013302773 -0.1306108 -0.21481131 -0.15254894 -0.086856045 -0.06630038 0.026963226 -0.0172345 -0.032505866 -0.14190318 0.09962553 0.072213165 0.14751077 -0.082245246 0.029236536 0.023578538 0.05867804 0.09694621 0.0593593 0.008728858 0.011157243 -0.06530851 0.11206536 0.14177597 -0.14054668 0.044277534
( 0.021285076 0.09167551 0.00086302654 -0.23582059 -0.021463934 0.087170936 -0.0037271131 -0.041806344 -0.17240748 0.027147423 0.049502008 -0.10031082 0.0012975723 -0.18554847 0.11365765 0.11963221 0.15432869 0.0074823103 0.06794434 -0.06940864 -0.08448284 -0.0029403435 -0.097778335 -0.09292476 0.13023928 -0.12453621 -0.15475358 0.0491754 0.04603815 0.031285048 0.057219584 -0.06426659 -0.019367145 -0.13848852 0.15759769 -0.072444364 0.07987682 0.042979732 0.056540396 -0.034070496 0.043518424 -0.19421244 -0.085775 0.014792582 -0.082671955 0.13198645 -0.120122954 0.03469021 -0.09557631 -0.19067682 0.13466866 0.044987958 -0.07728172 -0.11763425 0.13464458 0.10490564 0.07679157 0.09086971 0.19892217 0.068470344 0.014048145 0.026477836 -0.047270775 -0.07785885 -0.108961254 -0.06909657 0.10147289 0.043989494 0.0063931635 -0.04629857 0.15708742 -0.22523384 0.13306758 -0.039306294 0.037315052 -0.052895557 -0.14654511 -0.10767598 -0.09491521 -0.086907245 0.16886824 -0.026299555 0.039001685 -0.019051604 0.090968095 0.15966918 0.043616686 0.06726751 -0.02293755 -0.1312823 0.16003048 0.117076166 0.06579453 0.07648069 -0.009862034 -0.0005264782 -0.084636785 0.13687028 -0.07708317 0.10749733
NUMBER-bp -0.04872904 0.039263688 -0.08765014 -0.17347604 0.054872636 -0.07942939 -0.10275941 0.08854664 -0.12579714 0.020620102 0.10251718 -0.07399452 0.1463252 -0.09406541 0.08608819 0.0027224638 0.090527914 0.1534326 0.031509377 0.028349284 -0.058876902 -0.08969553 -0.13061085 -0.091165036 0.017738026 -0.038587976 -0.1527113 0.040314343 -0.025022676 0.20480041 0.0789024 0.04935124 0.0006197059 -0.10827672 0.14866598 -0.10502354 -0.04258279 0.065981254 0.0034683957 0.007940241 0.07599055 -0.13082 -0.10223597 -0.024769638 -0.04965494 0.14805765 0.0020008755 0.04904972 -0.10472901 -0.14228174 0.03892543 -0.0056416625 0.00897968 -0.105230935 0.04575623 0.097645365 0.041385893 0.052411336 0.22337385 0.0065801525 0.10798838 0.02240057 0.062744156 0.030076407 -0.12848327 -0.086920016 0.17947878 0.14627284 -0.036427412 0.04326384 0.03982254 -0.14582177 0.08011124 -0.15738635 0.026904657 -0.020497497 -0.116357654 -0.12796485 -0.113461874 -0.0748233 0.12005971 -0.13390088 0.14758153 -0.06501926 0.01608595 0.21771531 0.117723204 0.115669124 -0.08362614 -0.15238191 0.11508554 -0.0055018705 -0.022788348 -0.047470946 -0.08709815 -0.07760293 0.06623697 0.1449447 -0.10764437 0.24278566
vitro -0.050048366 -0.047911767 -0.078081265 -0.17673793 -0.110951886 0.10944323 -0.024513202 0.12283406 -0.1082941 -0.00699589 0.17440003 -0.094649486 0.1897653 0.0063075665 -0.09207835 -0.034736793 -0.04249145 -0.019885676 0.011365465 -0.08736809 0.050375946 -0.1814031 -0.08043487 -0.0943503 0.122004 0.025865316 -0.19903556 0.11632514 -0.09875903 0.115557835 0.12363949 -0.09949105 0.00041250073 -0.07561483 0.082996555 0.02999936 0.073887795 -0.07006386 0.11235018 -0.004314909 0.14548695 -0.13901514 -0.035050906 0.047813706 -0.00010271582 0.009650687 0.006333372 0.034836266 -0.08168301 -0.12657934 -0.030352093 0.0051315306 -0.1742525 0.085486464 0.15797178 0.12374258 -0.04122016 -0.058982346 0.1076413 -0.081087954 -0.095088005 -0.11462295 0.0050752214 -0.10497263 -0.07246894 -0.10494777 0.019540105 0.028140947 0.093635105 -0.09556599 0.051440623 -0.11038603 0.13907616 -0.13885918 0.06604726 -0.10990095 -0.18953396 -0.17017399 -0.07652716 -0.03041348 -0.015396592 -0.08034951 0.20752221 -0.009722936 -0.058543574 0.049980015 0.08776441 0.07305138 -0.12944762 -0.23071653 -0.029314987 0.014396122 -0.13157523 -0.0232623 0.030187566 0.05884753 0.034612868 0.03578326 -0.013725466 0.24809396
immunoglobulin -0.013165421 -0.047915276 -0.087713175 -0.22719923 0.02705502 -0.019144548 -0.08760551 0.07579356 -0.17406014 0.057104964 0.1375991 -0.05941601 0.058499083 -0.16239972 0.0031027142 0.09551289 0.13065676 0.117734805 -0.055768453 -0.034973715 -0.044971116 -0.035035707 -0.12360368 -0.050977327 0.00886118 -0.08301369 -0.13128065 0.11796864 -0.03857771 0.20125447 0.20525643 0.002121098 0.025164718 -0.13169071 0.15400033 -0.100411676 0.044939656 0.05186329 0.009620505 -0.11020896 0.014223443 -0.10861609 -0.045204967 -0.026135392 -0.02353635 0.08285624 -0.04465773 -0.03655092 -0.11546491 -0.199471 0.08951435 -0.047984354 -0.03210761 -0.046571825 0.097037084 0.14383091 0.04861874 0.098331444 0.17017211 -0.02802615 0.037956946 0.0016465274 0.07390242 0.027222358 -0.12591432 -0.10351234 0.11905906 0.118798964 0.04717395 0.026918959 0.04342104 -0.21186587 0.12542814 -0.19621374 0.066315904 0.010396506 -0.16149451 -0.05931996 0.02058892 -0.1185477 0.03401966 -0.08087237 0.10956098 -0.04430666 0.13577226 0.14449506 0.08578833 0.03380495 -0.052200228 -0.14181203 0.16932675 0.08866357 -0.0060991724 0.012601285 -0.0859944 -0.13703315 -0.03804069 0.027640859 -0.06229456 0.20259923
systemic -0.06107576 -0.038100727 -0.17910357 -0.25543773 -0.042889312 0.07231319 -0.08092543 -0.061743718 -0.1865292 -0.028178353 0.061362244 -0.04773655 0.03502242 -0.19897622 0.0548705 -0.008251385 0.14431253 0.07952 -0.0033393041 0.0032904833 -0.0979868 0.013829796 -0.13198343 -0.1673955 0.004068173 0.012474513 -0.12891597 0.07971382 0.017725028 0.11799982 0.05645967 -0.099961996 -0.022405202 0.054913767 0.19218893 0.02589467 0.0618875 0.1590297 0.011243852 -0.07937023 0.02672536 -0.050492574 0.0064002057 -0.09240574 -0.053474437 0.08403132 -0.05053843 0.00061304565 -0.12737586 -0.16578425 0.041598473 -0.08219702 -0.04955354 -0.060162436 -0.033928894 0.02681916 0.054003544 0.10556884 0.21485688 -0.01522493 -0.08640004 0.04270754 0.027697166 0.10288 -0.22474635 -0.034198575 0.18228833 0.07757791 0.045334622 0.048334293 0.12694351 -0.043235864 0.1384647 -0.05179963 0.01906995 -0.10213795 -0.11059222 -0.1604875 0.02656291 -0.1611189 0.13753268 -0.08947413 -0.019237923 -0.124869324 0.07689598 0.16908962 0.04076819 0.082032725 -0.19178799 -0.0039483774 -0.029414412 0.002998364 0.09371364 0.025002249 0.03468541 -0.15998948 -0.003296847 -0.049816906 -0.21145675 0.043182615
outcome 0.02039485 0.104261026 0.07168657 0.0425503 0.05744105 -0.036227345 -0.0019167211 0.16867015 -0.011935193 0.045754094 -0.0010478937 0.050121255 0.06977942 -0.18325722 0.00031130106 -0.0858561 0.01682003 0.05762865 0.0129578365 -0.14984508 -0.0016098493 0.039715286 -0.19713104 -0.15869471 -0.07457136 -0.033980526 -0.029929278 0.0028726293 0.1317672 0.06786606 0.050662767 -0.06861375 -0.09507617 -0.036003865 -0.030653534 -0.1726592 0.019473968 0.025344308 0.006119168 -0.02867059 -0.006156133 0.06242117 0.058191966 -0.09988423 0.06392702 0.044137474 0.03489212 -0.08236001 -0.051144518 -0.0133370245 0.17064393 0.038963944 -0.1065625 0.037060507 0.15001123 0.12526405 0.061662577 0.16174322 0.1550637 -0.0022645046 0.014557363 -0.039758675 0.151416 0.15112248 -0.23233807 -0.1578407 0.15999055 0.051495537 -0.13040975 -0.011694858 0.19229461 -0.054800294 0.1679683 -0.04968477 0.059165493 0.116942115 -0.07684215 0.010252806 -0.08119222 -0.13059278 -0.0023816184 -0.069064744 0.049353927 -0.01790091 0.18299554 0.1680813 0.06946283 0.12951508 -0.16240904 0.055645205 0.2172884 -0.040753365 -0.14727482 0.023970256 0.091532424 0.057435527 -0.093147136 0.12642689 -0.062421635 0.18891856
confirmed -0.021825882 0.05407047 -0.12809838 -0.08180339 -0.03251076 -0.020426732 -0.03247712 0.12935549 -0.044147253 0.01236313 0.047201734 -0.09715461 0.13649084 -0.115099825 0.113515 -0.0068171886 0.16064736 0.05656223 -0.008464262 -0.01283442 -0.01426126 -0.09254179 -0.16170911 -0.15676622 0.029094722 -0.13035946 -0.18883501 0.018808309 -0.040931657 0.17638576 0.22394851 0.07284834 0.053794682 -0.11624233 0.12388493 -0.05005276 0.024803614 0.1189167 -0.074477874 -0.042261925 0.058066983 -0.16445902 -0.080758855 -0.061446954 -0.004487507 0.12407324 -0.07681331 0.093799345 0.0016065021 -0.12362051 -0.0388271 -0.04022485 -0.09174904 -0.097257465 0.01593787 0.06435313 0.12765671 0.077025115 0.15595584 0.112241305 0.010697963 0.00080164685 0.06682052 0.012416654 -0.091052614 0.016956316 0.0987518 0.050140854 0.05819479 0.018481256 0.14670965 -0.2480504 0.16796593 -0.13398086 0.11600512 0.046850063 -0.1181516 -0.09049009 -0.0023222456 -0.10177018 0.13281476 -0.028612908 0.047778398 -0.107762486 0.1453373 0.19283023 -0.017738925 0.06488122 -0.004747608 -0.17572609 0.102077186 0.023640273 -0.07795289 0.0054915063 -0.05589483 -0.024123361 -0.020410035 -0.005418178 -0.20110147 0.20823468
To -0.12824285 -0.047040336 -0.19013019 -0.1443741 0.03568492 0.08582863 0.014965536 0.08705772 -0.12435045 0.006840882 0.1334428 -0.15277505 0.1889214 0.010177771 0.03796839 -0.09054014 -0.06517451 -0.060208213 0.07916052 0.05968161 -0.02162615 -0.032647185 -0.09390358 -0.19026983 0.08189544 -0.033865523 0.04960963 -0.08122566 0.047318593 0.081573166 0.11402203 -0.06935419 -0.012274812 -0.078320414 0.12497407 -0.002788657 0.014200617 0.07939529 0.0010863396 -0.09106448 0.09633681 -0.18271616 -0.1619714 -0.18686815 0.03833306 0.024050487 -0.17920424 0.06321333 -0.07576787 -0.019388003 -0.0074414345 -0.038875032 0.046144504 0.10676342 0.06108122 -0.05134441 0.091334246 0.07750239 0.14513226 0.15020585 -0.0054471293 -0.071090035 0.004549961 0.09069961 -0.06641111 0.03253743 -0.0010799541 0.09688355 0.09829936 -0.03019972 0.13881811 -0.004779669 0.14870235 -0.0726598 -0.055785287 0.087273836 -0.035440266 0.013200299 -0.066161 -0.17770292 0.07630051 -0.16942593 0.10961609 -0.06644241 0.19753237 0.21780714 0.16869812 0.1585012 -0.11214612 -0.21351129 0.025088849 -0.03962703 0.10476267 0.100042745 0.029435279 0.09314166 0.0124423625 -0.07757511 -0.07592507 0.07946876
measure 0.05740308 0.038753364 -0.066859215 -0.16337946 -0.027943123 -0.05671741 -0.07893985 -0.016758636 -0.17203635 0.08234801 0.15435083 -0.0029842313 0.10243353 -0.10325147 0.033526596 0.06364378 0.0945022 0.17312875 0.03319685 0.03295651 0.026235912 -0.14395474 -0.08900915 -0.092928536 0.036588844 -0.17117748 -0.14147234 0.003592231 -0.00957619 0.14026633 0.20511371 0.04883688 0.0028958821 -0.05112434 0.12578036 -0.04069798 0.019250864 0.10706536 0.002430599 -0.13667785 -0.025919424 -0.05475959 -0.065724656 -0.06931693 -0.071786985 0.08431218 -0.112650216 0.037769258 -0.0044246484 -0.0855021 0.08360974 -0.08988929 -0.022541154 -0.10658448 0.07477305 0.04825873 0.04881987 0.107683405 0.1908863 0.09569689 0.03917168 0.02713322 -0.0073046805 0.013208067 -0.12104921 -0.11421491 0.1543058 0.11194635 -0.060253277 0.023722727 0.15175721 -0.1891359 0.17092337 -0.1036616 0.051793475 -0.03746293 -0.24579184 -0.068899885 0.008682571 -0.14790666 0.07241772 -0.039760258 0.106752895 -0.14252597 0.035154223 0.19568361 0.025440356 0.08319234 -0.13813727 -0.051756147 0.02499039 -0.0055927327 -0.029935326 -0.0067859846 -0.0181237 -0.124952905 -0.07805065 0.09741153 -0.15031947 0.24016614
Correlation 0.09692762 0.04809625 -0.105352126 -0.18476912 -0.0013228492 0.022032423 0.08642482 0.11562934 0.013596784 0.029623337 0.10935246 0.0822375 0.13557233 -0.087491296 -0.028067563 0.023932133 0.07868096 0.09299689 -0.06578356 -0.08077889 -0.12209482 -0.07683603 -0.13656056 -0.112170815 -0.07119042 -0.007807274 0.023102764 0.014724428 -0.0033716992 0.111404665 0.0055986117 -0.06377356 -0.015085742 -0.087707765 0.1438199 -0.093535304 -0.0016233122 0.0048268875 -0.14334412 -0.122125424 0.0010624873 -0.2274971 -0.17366499 -0.0030309283 -0.12844294 0.050485753 0.07201366 -0.10424107 -0.15835558 -0.20067094 0.048751 -0.025140109 -0.018367952 -0.044121403 -0.0033998555 0.0054077976 0.081388384 0.10264718 0.15963136 0.07581852 0.09101683 0.09064703 0.07941697 -0.032132603 0.020291194 -0.08458353 0.022039622 0.063591845 0.06856473 0.11489087 -0.012309155 -0.19303788 0.015035401 -0.25322214 0.110740066 0.046711348 -0.24316926 -0.06741648 0.016333783 -0.048001517 0.15899292 -0.016262144 0.13157962 -0.14997733 -0.017675476 0.02873955 0.007988507 0.13621196 0.0056946636 -0.05235727 0.20907223 0.070042334 0.115386695 -0.09939549 -0.018738719 -0.012461371 0.082623206 -0.053784464 -0.16683435 0.17730589
portion -0.12586725 -0.07226544 -0.1955161 -0.08986364 -0.018441223 0.03951173 -0.055008557 0.041307118 -0.008731846 0.045401886 -0.0069362647 0.10855608 0.04118911 -0.13097835 -9.810187e-05 0.056003828 -0.0611449 -0.032131135 -0.089209944 -0.0041136444 -0.118485324 0.038804937 0.0016541631 -0.07205532 0.021669555 -0.031094398 0.006693419 0.10188837 -0.02998562 0.23453368 0.080708444 0.12698682 0.013029285 -0.034569778 0.002142311 -0.20912969 -0.13806221 -0.07816232 0.08374606 0.049528014 0.036337446 0.012447917 -0.1378327 0.0058725127 -0.12825622 0.06859513 -0.012805298 0.12305599 -0.050355505 -0.22775635 0.08852595 0.053110354 -0.12533396 -0.02180898 -0.061594266 0.18558417 -0.0063098185 0.049958237 0.041883186 -0.101071015 0.0015470121 0.008059175 0.11062637 -0.03274373 -0.11868477 0.009999292 0.06272703 0.11206169 0.08040372 -0.08392933 0.20633845 -0.22805499 -0.016565312 -0.13038416 0.102343924 0.10056336 -0.14974222 -0.047902614 0.09722397 -0.15408683 0.13937835 0.009128214 0.20423442 -0.18662447 -0.011279231 0.20040393 0.1197349 -0.044966534 0.0007951365 -0.06097745 0.06630097 0.038903452 -0.124584824 -0.1108413 -0.037989743 -0.10779491 0.012359496 0.075149104 -0.11089713 0.16195118
at -0.06836711 -0.09868086 -0.00025162677 -0.24026845 0.028369153 -0.010919922 -0.12669952 0.026247777 -0.090603404 0.04127015 0.12303662 0.054127887 0.060133383 -0.13609065 0.13599081 0.041869633 0.057078082 0.13588673 -0.124225 -0.064687125 0.067607924 0.002597334 -0.05658425 -0.07988665 0.096780784 -0.14685094 -0.115166694 0.11877654 0.01530695 0.12882727 0.20503521 0.0012036514 0.022185277 -0.005449871 0.14796153 0.0027859712 0.038778894 0.076332234 -0.016818073 -0.075954564 0.092884 -0.11757683 -0.15285918 -0.022924066 0.02633482 0.16799809 -0.11744466 0.12603457 -0.12334446 -0.06827314 0.036798023 -0.058676276 -0.10413363 -0.011132374 -0.06940878 0.12233963 0.024296653 0.09736757 0.17250498 -0.06886252 0.066435196 0.096697226 -0.026526386 0.024141168 -0.049291335 -0.104771145 0.047076985 0.13453855 0.016971627 -0.031528972 0.19481315 -0.04548093 0.18882164 -0.14762856 0.122888535 0.03987169 -0.16559273 -0.11010472 -0.018344218 -0.07640065 0.056807116 0.008456468 0.13919848 -0.13670857 0.15746017 0.20263761 0.082597844 0.04524081 -0.10332793 -0.16348979 0.055546686 0.012463361 0.0167385 -0.059322357 -0.03199308 -0.11995018 -0.0438257 0.043440033 -0.07418345 0.17670994
Cephradine -0.045859337 -0.053239476 -0.11491348 -0.21805957 0.056176044 0.021154843 -0.05840718 0.17077985 0.071914785 -0.07854184 0.09695999 0.09272773 0.10989583 0.022424808 -0.07162698 0.0884628 0.18687828 0.15790541 0.036825616 -0.07628233 -0.014009679 0.026493894 0.00059225206 0.044503253 -0.10592778 -0.09532662 -0.13512504 0.047249645 0.13285469 0.05814616 0.06511531 0.01880499 -0.06327029 0.03702538 0.07701709 -0.16852832 0.018396374 -0.003897471 0.09166307 -0.12806116 -0.03473568 -0.16233532 -0.07608363 0.0802466 0.013540149 0.1350108 0.0067902263 -0.045058206 -0.1388564 -0.04766032 -0.06485888 0.12124816 0.098158054 0.06342259 -0.001358354 0.16059542 -0.04666175 0.11673582 0.17745312 0.1061674 -0.028599419 -0.123809375 -0.11594458 -0.09485874 -0.039762728 0.03989262 0.10692059 0.19209327 -0.13440956 -0.03801909 0.10645812 0.00775843 0.113248944 -0.18912289 0.181969 -0.13456127 0.05456242 -0.09896671 -0.02725108 -0.13761854 0.0037754534 -0.10562586 -0.071045324 0.010077594 -0.08726818 -0.0776705 0.073469244 0.16486919 -0.04582882 0.018641274 0.17743121 -0.11199005 -0.08493014 -0.085330985 0.11277417 -0.058993027 0.13525648 -0.10804254 -0.13777545 -0.037097875
organization 0.05086621 0.017791346 -0.0669473 -0.19843486 0.06262767 -0.029450534 -0.12337251 0.11042302 -0.10129699 0.06413766 0.044862505 -0.052476443 0.05167528 -0.21084107 -0.020331113 -0.035353452 0.10683724 0.08743341 0.011319694 -0.022681255 -0.032279458 -0.078315996 -0.10799556 -0.13952154 -0.043217633 -0.0031994302 -0.124138825 0.03339662 -0.0033111272 0.02441556 0.11660428 -0.038143914 0.0001277541 -0.12536488 0.18604332 -0.09166661 -0.033420872 0.09035177 -0.01955814 -0.13655987 0.10898414 -0.16994496 -0.030065168 -0.10725057 -0.08336871 0.10389674 0.04672694 -0.03977225 -0.057976265 -0.1128808 0.09440477 -0.081021145 -0.14800557 -0.03590096 0.021468358 0.14578629 0.12570252 0.083861664 0.08720318 0.025185408 0.04677523 0.015289231 0.10478937 -0.0010472039 -0.09570005 -0.03755037 0.005573982 0.17546956 0.08164497 0.014626852 0.15960062 -0.17345609 0.17415728 -0.12170416 0.11310601 0.07985814 -0.21882737 -0.098242685 -0.018432941 -0.015547192 0.14579068 -0.06853221 0.13191825 -0.12874281 0.16848914 0.15980816 0.13122298 -0.015220871 -0.0890176 -0.13559426 0.015675995 -0.019328877 -0.0070008966 0.06207918 -0.06265701 -0.11814454 -0.049811248 0.11770639 -0.20127967 0.12337331
250 -0.041272502 -0.04540811 0.059860162 -0.056585625 0.06513902 -0.021963079 -0.10866078 0.040806316 -0.19882785 -0.004230438 0.17584155 -0.004465524 0.17581247 -0.020866903 0.13934006 -0.03421301 0.018265901 0.15274926 -0.09272903 0.065055154 0.087427884 -0.05124729 -0.04466053 -0.16137484 0.053295728 -0.04238811 -0.15950827 -0.06261511 -0.06835254 0.045716908 0.18621647 -0.098896995 0.06640004 -0.13470736 0.17064491 0.012256774 0.02808679 0.10913223 -0.15520339 -0.06691578 -0.11870623 -0.09865898 -0.015404942 -0.11761153 0.0039126696 0.15941712 -0.07856673 -0.048279524 0.019301578 -0.11989277 0.00054775015 -0.002242818 0.0059450944 0.058639076 0.15380898 0.20169479 -0.07922979 0.08368622 0.16409771 0.019980835 0.04778807 0.07508863 -0.008335912 0.07185843 -0.1100338 -0.11558799 0.09550966 0.17304084 -0.07488772 -0.12721714 -0.05266621 0.032462772 0.083770275 -0.2077068 0.15359624 0.061669927 -0.17798316 -0.0136691285 -0.03460123 -0.12625767 -0.040666018 -0.123907186 -0.048172366 -0.056405485 0.06381362 0.12727894 0.151419 -0.11457032 0.028999345 -0.10416046 0.19860867 0.04115911 0.12584496 -0.06946084 0.017137896 0.0256828 -0.111092195 -0.007938181 0.030167691 0.065245144
, -0.045253586 0.04307163 -0.08277115 -0.26147577 0.04143457 0.045876388 0.048174303 0.10550529 -0.13020305 -0.028119462 0.1432452 0.052542336 0.15652703 -0.1288093 -0.046363875 0.049232945 0.031358622 0.06921471 -0.104357354 -0.10284022 0.04496468 -0.05316685 -0.041390505 -0.02608636 0.098763295 -0.19573244 -0.037105516 0.10800783 -0.0066794814 0.18527117 0.11631263 -0.0057986756 -0.0170946 -0.04464173 0.13051459 -0.096854106 -0.067960724 0.09983865 -0.023475358 -0.06529259 0.13136284 -0.10636605 -0.01011514 -0.06571746 -0.059862852 0.1832325 -0.00642213 0.06676794 -0.10647879 -0.101047136 0.0068340935 -0.03728392 -0.09114723 -0.025954917 0.09918545 0.037894823 -0.027490493 0.10505341 0.21378767 0.056219414 0.06758818 -0.05338349 0.04960051 -0.046997484 -0.10902805 -0.13110484 0.12844263 0.08471668 0.03347611 -0.04622353 0.06663599 -0.1948777 0.09244329 -0.11290441 0.11365485 -0.089306474 -0.114254944 -0.018146258 -0.117340066 -0.096663065 0.102874175 -0.111092724 0.1233094 -0.18044955 0.0896233 0.23770654 0.042934317 0.03244682 -0.05677465 -0.08580839 0.15814602 0.014805903 -0.0422597 0.016140956 -0.011397151 -0.003695568 0.042544264 0.0948687 -0.13553461 0.22855961
female -0.021768821 0.027523506 -0.08883134 -0.19784795 -0.07364636 -0.012003316 0.009530131 0.05537 -0.18795218 0.10545893 0.09687706 -0.043235116 0.056163512 -0.12507467 0.021330599 0.080578946 0.1616642 0.16879186 -0.05969067 -0.042924903 -0.007746465 -0.11147347 -0.033812623 -0.14221814 0.041691523 -0.13551918 -0.094652995 -0.012908449 0.04295216 0.15112019 0.11127496 0.0012169671 0.026123367 -0.080843 0.1293017 -0.14709854 0.03128937 0.06367797 -0.024143435 -0.14397284 0.06784492 -0.11016309 -0.122196294 -0.07025274 -0.009195682 0.1251937 -0.047437686 0.05308509 -0.06249837 -0.2319274 0.02106801 -0.023551216 -0.11201539 -0.07485327 0.07352903 0.091155834 0.0332085 -0.011116043 0.091027655 0.04777893 0.014961663 0.03593071 0.011104176 -0.051269278 -0.16484454 -0.030779457 0.15348344 0.08064141 0.07901222 0.057390343 0.19537768 -0.13797323 0.15674119 -0.113113165 0.069666 -0.032429 -0.25732413 -0.054300938 0.032075334 -0.021438561 0.16792992 -0.14431676 0.11225681 -0.037284248 0.16811351 0.13667488 0.068648234 0.019210516 -0.051204965 -0.06934458 0.0889463 0.04061212 -0.07497234 -0.0789806 -0.09976403 -0.08871432 0.04492745 0.028335039 -0.14388554 0.1982803
on -0.10500273 0.075798176 -0.166277 -0.19850683 -0.031115696 0.03878506 0.04054122 -0.028261617 -0.15463562 0.11946761 0.1731951 0.040411938 0.08219397 -0.19702783 -0.013592639 0.12073239 0.18056563 0.17736602 0.008346369 -0.09033216 -0.10560895 -0.07736988 -0.09771565 -0.10957264 0.052660894 -0.0543632 -0.1943773 0.026891317 -0.07048132 0.13296382 0.1664303 -0.029667739 0.13233615 -0.008117644 0.03604155 -0.13423245 -0.06527164 0.034845736 -0.015681898 -0.076155834 0.04546716 -0.187885 -0.11516913 0.028460419 0.08706112 0.090614654 -0.10720265 0.020341678 -0.1171467 -0.22157764 0.053723894 -0.002189114 -0.09487083 -0.09391346 0.028056975 0.19136338 0.0022968834 -0.018634913 0.11100031 -0.03080681 0.024037339 0.016658831 -0.049359426 0.018552726 -0.08294374 -0.1287179 0.15514858 0.041283403 -0.05309877 0.021968815 0.15694447 -0.10880242 0.056545593 -0.15966323 -0.0031863684 -0.023232864 -0.099073984 -0.08481715 -0.008386545 -0.069123656 0.09226835 -0.13920578 0.16895442 -0.09863524 0.040498763 0.0601094 0.08805936 -0.032257933 0.0003809659 -0.17336316 0.1533317 0.029000072 -0.022832457 0.055317648 -0.021497523 -0.009575556 -0.062540606 0.12023877 -0.062204994 0.08845539
multiprotein 0.09254902 -0.026556803 -0.074179605 -0.20552047 -0.10706662 -0.09745184 -0.034804955 -0.02651918 -0.1100526 0.10392829 0.13314535 0.01687393 -0.0523482 0.022189427 0.08601362 0.04298882 -0.013404202 0.08523537 -0.068473466 0.011058237 0.023585912 -0.15734446 -0.13064797 -0.031561725 0.05698342 -0.084517784 -0.12575449 -0.0007651955 -0.03336442 0.061093777 0.023989903 -0.086760975 0.040917344 0.0034177399 0.034950804 -0.15641847 -0.11780782 -0.034313995 -0.020186536 0.0072048637 -0.0019118901 -0.10768462 0.021998085 -0.08691102 0.086067796 0.13684405 -0.012279677 0.112728804 0.06504915 -0.19983304 0.12173353 -0.08193702 -0.13232419 -0.14424534 0.035869185 0.027089044 0.029026201 0.14757939 0.16593418 0.07250808 0.012689446 -0.0013618697 -0.0011548621 0.1251012 -0.067979544 0.007967768 0.15873891 -0.043879844 0.06840001 -0.10758156 0.04972863 -0.21583277 0.1952924 -0.19639452 0.00016450607 -0.055488802 -0.19436851 -0.120087795 -0.07218703 0.015292414 0.17622486 -0.10167182 0.058493637 0.011754766 -0.05614522 0.1933696 0.042069353 -0.004030749 0.016595216 -0.20249279 -0.010103125 0.037655804 0.004639789 -0.07215949 0.01952948 -0.08631938 -0.019334774 0.15952048 -0.20932032 0.21403395
DNA 0.056897514 -0.010249758 0.04613448 -0.111267045 -0.12199511 -0.037442435 0.09648198 0.011951497 0.02462726 0.10597726 0.1889115 0.063076414 0.0020975054 -0.17089124 0.012849886 0.0020142621 0.1705877 0.05608979 -0.057736833 -0.08171363 -0.0880276 -0.14232847 0.03181302 -0.033177543 0.029515741 -0.026111934 -0.11439298 -0.01649275 0.05141558 -0.010041592 0.13615339 0.036455553 0.001635322 -0.12182069 0.100825146 -0.04769616 0.05433736 0.1524139 -0.020224916 -0.17310898 0.14238903 -0.13579519 0.053260952 -0.11582069 0.08150098 0.16791339 0.045554347 -0.08028903 -0.045833524 -0.15455295 -0.054277938 0.07942787 -0.044247538 -0.119717754 0.14871895 0.116510324 -0.008215774 -0.01503219 0.17233492 0.07024149 0.0397122 -0.034792516 -0.117152296 -0.08919837 -0.16743967 -0.1726932 -0.030180555 0.11858637 0.083190896 0.08692253 0.088409595 -0.103799045 0.15669495 -0.102365665 0.15174082 -0.09071745 -0.18203631 0.02157201 -0.030506574 -0.012346819 0.07020966 -0.08825016 0.040096186 0.049850233 0.057035312 0.16842824 0.11466216 -0.0018093606 0.0127813555 0.00044213634 0.142622 -0.084681734 -0.040646113 0.057206843 -0.14026056 -0.06343675 -0.06182676 0.15588325 -0.18386383 0.2239804
involvement 0.01452364 0.082698755 0.06278362 -0.17033485 -0.042173643 0.04836826 -0.0371709 0.0962106 0.027693547 0.08143535 -0.013625972 0.06136138 0.18730141 -0.046132755 -0.023087833 -0.05625501 -0.08005455 0.09398473 -0.014900634 -0.09962461 0.0062268134 -0.17508654 -0.1695281 -0.09507614 0.16540056 -0.1783103 -0.16254638 -0.043088373 0.0040107034 0.18910335 0.029963957 -0.050889682 0.11310416 -0.023056624 0.03552 -0.2113959 -0.0950503 0.0028575559 -0.0645047 -0.052595045 0.13561821 0.03218363 0.103291094 -0.08702975 -0.039333053 -0.065726444 0.053298708 0.14889342 0.055349756 -0.23447603 0.04150399 0.00018000444 -0.11430781 0.0046085315 0.11302775 0.16200374 -0.089208394 -0.08793968 -0.031130763 0.0070389146 -0.015012547 0.04333291 -0.07501324 -0.09454337 -0.20865697 -0.024074335 0.049980484 0.14496864 0.105625115 0.04825133 0.16385426 0.01149058 0.13694923 0.04298726 0.17137201 -0.062308833 -0.10103894 0.022066534 0.11985224 -0.009223159 0.032993827 -0.14400707 0.12580678 0.047550794 0.07387979 0.07707461 0.06087514 0.1393026 0.08735705 -0.064623155 -0.043652363 0.12170145 0.045817964 -0.06896771 -0.09993639 0.10072028 -0.009801865 0.089939535 -0.016936911 0.24057512
episodes -0.084014915 -0.07916953 -0.14218594 -0.09623624 0.04472649 -0.07258981 -0.070675395 -0.040661603 -0.16531998 -0.051641345 0.1533514 0.022221934 0.038207725 -0.18316416 0.10415351 0.015089497 0.112700544 0.075747445 -0.10451934 0.034516074 -0.045644954 -0.09388408 -0.055219155 -0.00033936522 0.06741381 -0.08580942 -0.16815667 0.09075186 0.05249332 0.17445299 0.14825743 0.05324811 0.06681802 -0.03789163 0.11596269 -0.028999424 0.039825585 0.043665994 -0.026961846 -0.10365608 0.02466022 -0.14885855 -0.011181834 -0.03886033 0.07023978 0.081391655 -0.07733578 -0.023573637 -0.019477451 -0.23311035 0.0110816555 0.052139312 -0.09290962 -0.059723094 0.06835994 0.17957515 0.048353754 0.08999721 0.21561576 0.08260899 0.042725556 -0.027298147 -0.05687382 0.053875003 -0.1337211 -0.05896018 0.07254688 0.14382488 0.0145020895 0.004990045 0.14872576 -0.22000758 0.19325309 -0.07106022 -0.009201124 0.0062661283 -0.21365704 -0.09268619 -0.08470697 -0.12889709 0.15796098 -0.09930998 0.17239352 -0.08339717 0.007495176 0.20485516 0.005851915 0.09278918 -0.096779115 -0.06043898 0.102021344 -0.023179999 -0.03198882 0.081116475 0.051455352 -0.14421749 0.05942806 0.016741833 -0.074144974 0.10185684
night 0.045592517 0.09503929 -0.042001307 -0.06557492 0.027470535 -0.002980653 0.05367046 0.096662834 -0.0896385 0.13503052 0.17116712 -0.11047035 0.16369733 -0.07570617 -0.020132633 0.11991668 -0.044238288 0.11145209 -0.03594272 -0.081871316 0.068468496 -0.1659357 -0.18247329 -0.15218589 0.10343549 -0.15578547 -0.15259817 0.018061655 -0.04896759 0.19310588 0.20130414 0.0974821 0.056219038 -0.16081421 0.08380143 -0.12359895 0.086901546 -0.060490273 0.009952048 -0.056132466 0.12272942 0.0034415487 -0.106296994 -0.021549605 -0.09435687 0.085417286 -0.13841204 0.12188725 -0.044356365 -0.22580516 0.07410436 0.0003686694 0.06450749 -0.048619077 0.07757049 0.12066676 -0.026910251 0.011314022 0.12629387 0.07246071 0.100585155 0.12523872 -0.011785676 0.00773579 -0.018781506 -0.046381436 0.14004886 0.05358573 -0.08847187 0.10979329 0.1701938 -0.18595554 -0.02112047 -0.054947287 -0.027992956 -0.040669385 -0.22814061 -0.09485355 0.083435796 0.0357809 -0.038385477 -0.098628804 0.17557657 -0.111049704 -0.054334525 0.118349336 0.10341152 0.10437597 -0.09285319 -0.112601474 0.023204599 0.068650626 0.029893434 0.036550898 -0.013437246 -0.02629635 -0.0630946 -0.047074594 -0.07681247 0.026537329
encoded 0.03232174 0.01313329 -0.04693274 -0.19802558 0.038077094 0.017508777 -0.012513453 0.072683014 -0.16108082 0.07494196 0.09207482 -0.0035782007 0.04641229 -0.03985247 0.10866348 0.015967 0.11350719 0.16645314 -0.027927766 4.134737e-05 0.04190611 -0.097386934 -0.15349819 -0.13312809 0.032850526 -0.1510415 -0.03177847 0.031003343 -0.04983274 0.048082054 0.12237173 0.08753024 0.10996903 -0.011602691 0.11291171 -0.16225407 0.0072187884 0.054810107 -0.020186283 -0.10112199 0.105925806 -0.03302197 -0.070018314 -0.074948 -0.016810153 0.05544959 -0.105653934 0.06653463 -0.105363324 -0.18046868 0.074267395 -0.023539698 -0.029781224 0.039990637 0.07787377 0.12607968 0.126352 0.10596794 0.187461 -0.010131101 0.08724393 0.04358617 -0.031138463 0.073221765 -0.19129731 -0.05328262 0.16153406 0.14159283 0.012172601 0.004348722 0.07246044 -0.20697963 0.17861117 -0.19691445 0.08332731 -0.05886661 -0.23854515 -0.054688793 -0.060269535 -0.09271528 0.06342653 -0.0056924354 0.12141971 -0.15675087 0.10242616 0.19600174 0.00063936424 0.028985646 -0.0061608925 -0.10626942 0.057331484 0.04783031 -0.036608722 0.014123023 0.030793972 -0.13032663 -0.03422655 0.030808708 -0.16724776 0.20310521
properties -0.09252524 0.060979724 -0.07180793 -0.20795341 0.018668788 0.06647044 0.009183919 0.012991072 -0.07503936 -0.057998177 0.029694388 -0.037418846 0.15837434 -0.16340142 0.07077046 0.11988821 0.16518669 0.14110146 -0.052945524 0.036931273 -0.016615216 -0.095819496 -0.028569443 -0.065313555 0.0050268457 -0.17287907 -0.17002371 0.044772316 -0.037371296 0.13445924 0.13757041 -0.024176246 0.11836261 -0.048881203 0.15466064 -0.13936 -0.017986525 0.0015251643 -0.016472071 -0.12700889 0.06279785 -0.20198688 -0.11300995 0.027950283 -0.08099445 0.09735674 0.021609925 0.043059167 -0.048714317 -0.09257883 0.07553727 -0.09180735 -0.03096333 -0.030422296 0.05120628 0.16393116 -0.007910401 0.11525081 0.18218221 0.023091944 0.07530354 0.0055732327 0.027764283 0.00346102 -0.07549374 -0.026920298 0.026516689 0.15634933 0.07812422 -0.03436468 0.1409699 -0.083024725 0.16341864 -0.17181009 0.10186455 -0.016365547 -0.19634466 -0.04430169 0.015041563 -0.094358146 0.14980851 -0.14026631 0.07689088 -0.14912818 0.1364979 0.082274236 -0.0054979655 -0.00995814 -0.059393708 -0.12812768 0.15809542 -0.0015441881 -0.011877323 0.051650006 -0.07399629 -0.1101579 0.055661954 0.03473943 -0.20646456 0.1810653
poor 0.02668231 -0.024832558 0.02171741 -0.023022326 -0.026625028 0.03596156 -0.14612629 -0.037502125 -0.1613111 -0.0003112999 -0.018273868 0.052564926 -0.044922292 -0.1765492 -0.080165215 0.06403175 0.20051417 -0.0011509845 0.03802109 0.057358313 -0.039066974 -0.15020846 -0.13934004 -0.058188625 0.11256797 -0.18377991 -0.1106651 0.10173542 0.11832648 0.024260469 0.25087672 0.08787834 0.14433023 -0.06266082 0.19504729 -0.07846962 -0.095358066 0.07401954 0.048748408 -0.15702873 0.07137566 -0.10336999 -0.016262773 -0.015768051 -0.012421086 0.08187285 0.042697947 -0.07219137 -0.03341785 -0.060290396 -0.078914955 -0.014047605 0.053647134 0.013863342 -0.06416979 0.10820806 0.05211546 0.054850273 0.16433053 0.15632796 -0.0074625514 -0.0826228 0.05636133 -0.064192034 -0.19247945 -0.12799636 0.14617263 0.014395739 0.08737208 -0.07923609 -0.0320869 -0.25059366 0.07894852 -0.102262296 0.08785522 -0.07279319 -0.14516 -0.024533134 -0.067252256 0.038150042 -0.037630673 0.0552116 -0.05083107 0.001474758 -0.0020287994 0.14222637 -0.0071124043 -0.06446742 -0.018847791 -0.1715709 0.19908573 0.036184154 -0.054218207 0.021734064 0.06735049 0.06616376 -0.087954804 0.19134733 -0.19373895 0.07237053
interference -0.050550967 0.04241952 -0.02570991 -0.057054464 -0.021530988 0.025952006 0.03236927 -0.055882618 -0.07538468 -0.029310513 0.048953213 0.023607783 0.014689755 -0.19352481 0.097767204 -0.013271337 0.12039943 0.011871325 -0.021791775 -0.12938543 -0.10602552 -0.013156837 -0.10758574 -0.14554994 -0.03342635 -0.063038245 -0.019952381 0.10552866 0.09271419 0.07208422 0.084994316 0.0141734285 0.13109784 -0.06394198 0.0685802 -0.17252286 0.077335924 0.12224535 -0.010988979 -0.014374917 0.052662004 -0.077119805 -0.017563874 -0.14529546 -0.09149399 0.20495743 -0.102738224 0.009568501 -0.05108609 -0.24064958 0.12184511 -0.062052876 -0.14376438 -0.08774535 0.04399542 0.13791347 0.032791447 0.007937807 0.13737011 0.0045662397 0.050498847 0.11521461 0.055863716 0.054432683 -0.06730646 -0.10481471 0.09173237 0.15010396 0.00012699794 -0.0039540655 0.13744055 -0.21490254 0.17406319 -0.05296974 0.10146649 0.04070116 -0.12961838 0.037125356 0.030243294 -0.14446945 0.12525207 -0.17202368 0.18072426 -0.073411755 0.01200276 0.22267242 0.07312161 0.017192231 -0.14329909 -0.18456161 0.082262896 0.12705207 0.038412225 0.055188693 0.052886683 -0.048405945 -0.006493326 0.0034999135 -0.21729848 0.08544376
(median -0.07133319 -0.055064894 -0.085255615 -0.1757794 0.046677817 -0.00076191087 0.031695325 -0.04292921 -0.1220489 0.0039716484 0.16256407 -0.069266595 0.09976084 -0.13192932 -0.002966591 0.092926726 0.020314956 0.17361379 0.0031719618 -0.0351894 -0.0058024502 -0.14919963 -0.0796088 -0.017424466 0.026785545 -0.045175496 -0.15602273 0.12905777 0.04246047 0.17487165 0.15675984 -0.015049774 0.023145722 0.025342776 0.11303034 -0.14471667 0.06650813 0.027350256 0.06902635 -0.10667233 0.04303333 -0.07484011 -0.05390045 0.01894787 0.08384879 0.124773644 0.009518287 0.0695325 -0.12716192 -0.20318213 -0.045313306 -0.0067733824 -0.0775934 0.039341796 0.024092657 0.1576587 0.011647857 0.06275112 0.15222478 0.09121014 0.011430759 0.0674459 -0.028507669 -0.034000646 -0.03746696 -0.020845186 0.112977505 0.12903804 0.08046322 -0.037363198 0.030763568 -0.19612221 0.14644103 -0.21098065 0.030506233 -0.09509504 -0.16053404 -0.14364454 -0.10940036 -0.049676955 0.12866855 -0.13671449 0.024549358 -0.031811897 0.02196221 0.15502651 0.052134737 0.0044677313 -0.010362136 -0.18063407 0.160579 0.09064851 0.057969738 -0.08298317 -0.08612486 -0.15399067 -0.07503869 0.15638556 -0.04760394 0.23612231
preceding -0.043641917 -0.067610905 -0.12695308 -0.13660361 0.004020795 -0.004784563 -0.10433953 0.088371016 -0.16864376 -0.016665777 0.09049286 0.028803961 0.054984275 -0.053450808 -0.00053407106 0.057854697 0.05142292 0.19163348 0.009264371 0.010129335 0.035652477 -0.06509984 -0.14940754 -0.08992242 0.09026412 -0.19763401 -0.0845866 0.05065941 0.03796194 0.0758902 0.12734851 0.075188234 0.11807335 -0.09438677 0.06612152 -0.14447601 -0.03400375 -0.0010190236 0.014337403 -0.12562738 0.0064857486 -0.11705092 -0.06800175 -0.05283088 0.019587932 0.21256283 0.0044842665 -0.043945145 -0.038992267 -0.24523017 0.007470999 0.04305722 -0.09440809 -0.020006947 -0.017275875 0.09694497 -0.01479094 -0.0043492857 0.14211038 0.0124556115 0.0753982 -0.0039041098 0.06691725 0.03255863 -0.20899656 -0.104858905 0.11096168 0.076013416 -0.010714027 0.038086765 0.18932128 -0.1840273 0.17426507 -0.1938905 0.13698547 -0.0065220473 -0.18433125 -0.11497047 -0.07320265 -0.041270696 0.1289086 -0.04317892 0.049747374 -0.05033423 0.09002278 0.19823685 0.04846754 0.07959173 -0.07533184 -0.07829052 0.030414969 0.019552032 -0.040851053 0.03176201 -0.0015096155 -0.054906152 0.068813026 0.14710812 -0.11161989 0.24691644
three -0.007889146 -0.046392277 -0.09489752 -0.1839656 0.009379566 0.0141783375 0.0013078438 -0.028803948 -0.1366176 0.05866746 0.08370188 0.035361454 0.06456799 -0.1666008 0.115837835 0.12797573 0.005313164 0.10539784 -0.011660964 0.0038602073 -0.05121963 -0.09668138 -0.030619942 -0.078646675 0.11443787 -0.066156335 -0.048088294 0.11319226 0.0371906 0.19528756 0.12614413 0.021582099 0.09477359 -0.08981362 0.12552755 -0.08808834 -0.0017676306 0.14250049 0.048969455 -0.017970238 -0.01730776 -0.18830535 -0.11600579 -0.043908335 -0.07969667 0.09636751 -0.116217926 -0.02262094 -0.07778794 -0.08844165 0.05650298 -0.08872228 -0.07647242 -0.10067152 0.013820512 0.13742593 0.1229988 0.038456663 0.08005225 -0.02447485 0.04380493 -0.023795817 0.089581944 -0.04029109 -0.16977668 -0.12708135 0.15617664 0.15962678 -0.058596667 0.065232836 0.09688161 -0.23538491 0.13325271 -0.111393824 0.11661962 -0.030052602 -0.23750716 -0.07126806 -0.08520782 -0.13073538 0.0949127 -0.052580114 0.11588604 -0.14113984 0.040488094 0.11337994 0.03473476 0.11513222 -0.14428936 -0.20249657 0.12882492 -0.0039207404 -0.03815827 0.03544664 -0.06098015 -0.060760997 -0.046589367 -0.004809235 -0.15833697 0.12237601
) -0.045464724 -0.000944267 -0.1375932 -0.062726215 -0.024000276 0.04276871 -0.105519995 0.116865076 -0.120892674 -0.02424853 0.060300082 0.07702413 0.0012852399 -0.1749685 0.082765326 0.124847665 0.16631797 0.16936012 0.013733255 -0.07935032 0.00039945677 -0.069802724 -0.16953866 -0.03099631 0.07747419 -0.015637951 -0.06343108 0.09263664 0.09166628 0.20792516 0.09325503 0.056331594 -0.052054368 -0.00023518865 0.14899382 -0.044020675 0.008588439 0.13882227 -0.008016562 0.025186045 0.05543392 -0.14442699 -0.003011791 0.006066553 0.080429554 0.05702861 -0.033248004 0.117582396 -0.069601975 -0.057495862 0.09647507 0.037895005 -0.011766934 -0.057662163 0.0037442544 0.16055682 -0.0010553977 0.062170975 0.05411659 -0.00965302 0.11173487 -0.050294943 -0.028763983 0.05570946 -0.18147966 -0.048610903 0.07168548 0.1082678 -0.00023311823 -0.025670009 0.13596468 -0.24477188 0.11771143 -0.15850139 0.0034579048 -0.03834029 -0.22811128 -0.02981254 -0.013336128 -0.12070885 0.056329407 -0.08081848 0.15070704 -0.04537946 0.11989726 0.15884393 0.13774338 0.075186245 -0.08696033 -0.20751306 0.17261228 0.016407672 -0.10631769 -0.07818695 0.008152537 -0.13126093 0.008421145 0.0856908 -0.12925643 0.20783617
age -0.08150722 0.042303987 -0.041088074 -0.2401037 -0.045529675 -0.0066796183 0.04219271 -0.03254169 -0.09263581 0.040094595 0.05969583 -0.054182976 0.02155412 -0.17335421 0.030381234 0.07792121 0.07895875 0.09246631 -0.102749325 -0.07902156 -0.004647116 -0.13103512 -0.08082111 -0.045571487 0.054911554 -0.16268285 -0.13089347 0.091532014 -0.0320053 0.19371225 0.21821636 0.07637289 0.09128193 -0.0967911 0.07607469 -0.13371944 -0.008850662 0.08658724 -0.014169283 -0.13607192 -0.02527436 -0.15471357 -0.13267478 -0.06676757 0.004633529 0.1164778 -0.07415406 0.0046540042 -0.031361237 -0.2118582 -0.010020965 -0.0045394404 -0.013166361 -0.06617708 0.10763472 0.07864199 0.07929964 0.122380674 0.16358817 0.047295254 0.085484385 0.062378235 0.035385042 -0.018707171 -0.16548389 -0.11992299 0.11101016 0.12059239 -0.02874428 0.0039582876 0.10916007 -0.15803437 0.06913444 -0.15740396 0.09055091 0.04818396 -0.11168146 -0.081770085 -0.07843573 -0.1016244 0.10697609 -0.15418012 0.12616082 -0.09637714 0.12850562 0.21112123 0.10184748 0.08502036 -0.022082746 -0.1079935 0.02159054 -0.024786223 0.052368056 -0.07226398 -0.03391791 -0.03380922 -0.036919687 0.024339873 -0.14045762 0.19378333
that -0.017814513 0.04099046 -0.12982282 -0.20297192 -0.015696678 -0.029191371 0.026815774 0.07433112 -0.19785129 0.008245926 0.090678655 -0.065691955 0.12169683 -0.0859632 0.047754638 0.069855474 0.07937577 0.063722156 0.008472532 -0.05758991 0.03164083 -0.10627182 -0.1694505 -0.13247178 0.10244041 -0.084268294 -0.05380139 0.04102515 -0.012027821 0.17448165 0.1570582 -0.005969776 0.10198772 -0.10165484 0.122425415 -0.11476577 0.04807216 0.033906385 0.031296723 -0.10518283 -0.011752347 -0.10002072 -0.043287132 -0.0669587 -0.035722464 0.17530118 -0.023987176 -0.016409773 -0.11125239 -0.15726814 0.10364355 -0.008456628 -0.105182946 -0.091113895 0.04339246 0.088873975 0.0834142 0.025389072 0.14398092 0.06361727 0.005819305 0.032219704 0.03173442 0.02498426 -0.17532337 -0.10369236 0.10681606 0.04358676 0.05041032 -0.0017184573 0.17255127 -0.23547716 0.12935 -0.20013973 0.0404457 0.025155474 -0.2063218 -0.044211846 -0.055070046 -0.10423754 0.09746327 -0.1280422 0.11400487 -0.105111435 0.046212494 0.16735807 0.07579595 0.053616855 -0.12114793 -0.17384101 0.15600088 0.05017238 -0.023241896 0.043074504 0.018548712 -0.11891164 0.011051891 0.043265317 -0.09146601 0.16758312
frequency 0.051461115 -0.035810914 -0.1580647 -0.1647954 0.012475891 0.017623423 -0.06481939 0.025824925 -0.08851682 0.09002925 0.0783694 0.06922635 0.16012435 -0.20692727 0.01649539 0.082606666 0.041114066 0.12646946 -0.0640669 0.020117173 -0.058779515 -0.14791244 -0.030372739 -0.007763893 0.05911858 -0.05628057 -0.13311027 0.103743546 0.09164341 0.061768953 0.16232306 -0.049194362 0.10826132 -0.10756181 0.12391918 -0.07770997 0.036004107 0.09333225 -0.011734987 -0.13065803 -0.0083396295 -0.19247259 -0.097424366 -0.036334917 -0.04713481 0.17179635 0.0080869 -0.04792907 -0.041848265 -0.09628047 0.06553432 0.046221476 0.009672656 -0.11844771 0.0824729 0.10651517 0.006647668 0.13224663 0.12825328 0.0059522535 -0.044005 -0.04305858 0.072695844 -0.045436405 -0.06949961 -0.04947078 0.10217383 0.09893361 -0.007005885 0.078241475 0.1483949 -0.099702075 0.060652513 -0.23336047 0.014452804 -0.0632495 -0.25313362 -0.102022626 -0.039970484 -0.00935773 0.11767887 -0.15669897 0.115112774 -0.13753332 0.13000481 0.09305318 0.035721216 0.075906135 -0.1136276 -0.17018355 0.14792813 0.078449935 -0.07082906 -0.014536689 -0.040138267 -0.0037891495 0.018901855 0.039901994 -0.20721728 0.18370456
33 -0.056390453 -0.07634404 -0.091017015 -0.19962618 0.053128626 0.05854127 -0.08148684 -0.0019267668 -0.09770349 -0.0108243795 0.008458759 -0.066911116 0.05813201 -0.11359927 -0.006288645 0.07496588 0.101706326 0.16767626 -0.002902141 -0.07311126 -0.060284633 -0.09294771 -0.12455379 -0.14807984 0.098614305 -0.11075675 -0.11434938 0.12904097 -0.060259596 0.14499263 0.20604645 -0.054839056 0.05305141 -0.10112257 0.17898831 -0.11582422 -0.06505001 -0.006926937 0.047706615 -0.0663564 0.08217229 -0.14914551 -0.12415216 0.01557282 -0.05324445 0.12910853 0.017212417 -0.017003097 -0.07084749 -0.14997114 0.010401101 -0.05473916 -0.1124896 0.014601295 0.009766586 0.12459019 0.07119552 -0.0040215277 0.14876957 0.103721105 0.054088324 0.005044094 0.089321405 0.08954436 -0.15671968 -0.1357357 0.11538549 0.13443533 0.020004056 -0.05295949 0.113345504 -0.19900739 0.093311295 -0.2146558 0.077537134 0.05780704 -0.11741235 -0.022426507 0.019504234 -0.0017168042 0.16809751 -0.13768564 0.0926323 -0.13798977 0.10717766 0.063433416 0.0052893013 0.056003053 -0.14260362 -0.108436644 0.10717025 -0.034447566 -0.037612878 0.04610084 0.007072786 -0.1024275 0.07337336 0.06979426 -0.19405884 0.13826579
mg 0.13095857 -0.09136532 -0.009651721 -0.06690014 -0.12873378 0.05891924 -0.0957739 -0.00065532554 -0.23767304 0.043473747 -0.036410168 0.030800926 0.17788231 -0.060430966 0.067334265 0.05954548 -0.03223127 0.18405555 -0.13527684 0.009786357 0.07387615 -0.037921324 -0.06863088 0.045044065 0.09042867 -0.11362172 -0.028491957 -0.087990984 0.035426494 0.11819737 -0.03332515 -0.018500779 -0.05214778 0.08050985 0.058666233 -0.22501273 0.028127616 -0.07005662 0.01892981 -0.02948743 -0.09281849 -0.17048089 -0.0011295599 0.08556874 0.07002429 -0.039450422 0.0787747 0.09958425 0.01654667 0.00028498782 0.06611085 0.12090928 0.064885065 0.10738769 0.1327875 0.06788852 0.1287326 -0.05019924 0.0656101 -0.0055602756 -0.003431744 -0.10828325 0.013596416 0.0027056015 -0.018614454 -0.10665947 0.026987031 0.13672957 -0.035013717 0.03159167 0.21811445 -0.17170474 0.23773903 -0.103555106 0.034095667 -0.083019264 -0.17703642 -0.11092633 0.02406087 -0.01988076 0.0558503 0.02156311 0.016108457 -0.1270367 0.018202776 0.19632265 -0.036809035 -0.027802672 -0.15851133 -0.215655 0.21884343 0.026584212 0.11018704 -0.10600103 0.09837271 -0.033768356 -0.103320815 0.02758482 -0.052267157 0.18196404
functional -0.011319898 -0.08197316 -0.18391985 -0.12848626 -0.0036225796 0.0040161563 0.05160912 0.13569625 -0.18449295 -0.008792846 0.13881491 -0.107782416 0.1249508 -0.18249723 -0.046807297 0.04541996 0.1502678 0.12100005 -0.071381636 0.0709766 0.073600985 -0.08398665 -0.17428653 0.009432418 -0.053027917 -0.20094669 -0.16925623 0.038595386 0.09468866 0.15997088 0.043135636 0.06711304 0.04104288 -0.14589363 0.18676126 -0.044388168 0.069712445 -0.0005911335 -0.08795602 -0.0032376957 0.12025819 -0.028823515 0.0034619546 -0.092673816 -0.06620203 0.16871284 -0.0023771734 0.10640791 -0.06362332 -0.17457047 0.1353085 0.059754442 0.014097592 -0.07807746 0.057724033 0.16772796 0.120458335 0.017028913 0.07426217 0.096327245 -0.01039783 0.0064821052 -0.027383035 0.08716234 -0.09367078 -0.060358286 0.10430068 0.1333241 -0.061661355 0.055220515 0.044945057 -0.21325284 0.04668183 -0.18731418 0.039681885 -0.0037862372 -0.078580804 -0.061281174 -0.038260028 -0.16579096 0.12788121 -0.08037247 0.11882039 -0.06758164 0.023093756 0.089131586 0.13284548 0.116840295 -0.12840976 -0.047797497 0.094541825 0.012483808 0.056174792 -0.03846483 -0.11555058 -0.1186946 -0.06868521 0.028863303 -0.053535238 0.05880782
we -0.06791283 0.055987086 -0.1306886 -0.18002674 0.039391298 -0.05907593 0.017533848 0.02067813 -0.11330452 -0.00781379 0.16242906 -0.07077039 0.09303662 -0.1815773 -0.002935704 0.08999945 0.11879754 0.055452697 -0.06757632 0.002980664 0.034922857 -0.11296616 -0.15329403 -0.06192586 0.004809545 -0.06668391 -0.16325475 0.08967129 -0.04953368 0.15460262 0.19511582 -0.023227526 -0.012153469 -0.07536151 0.15299495 -0.17036177 -0.025719812 0.092731215 -0.037726283 -0.082783595 0.059546385 -0.090926684 -0.11603997 -0.00050997414 0.008276605 0.18712753 -0.07330678 0.07319025 -0.0727378 -0.18552975 0.023857197 0.007943254 -0.004967879 -0.088641055 0.06759348 0.12098077 0.080937155 0.017734801 0.21293528 0.059779372 0.037810966 0.02012119 -0.016844995 0.030402986 -0.15540764 -0.07002583 0.1021935 0.11801551 -0.029266326 0.0033113363 0.16833636 -0.13803267 0.086180285 -0.16896331 0.0939741 0.05014182 -0.1394299 -0.097751305 9.337617e-05 -0.033822533 0.10528877 -0.039035395 0.09155859 -0.11924874 0.08700979 0.16577005 0.07884385 0.036635555 -0.09218079 -0.14362416 0.13157661 0.011715812 0.016039932 -0.024319258 -0.06707722 -0.13307539 0.0426196 0.06502055 -0.13682422 0.22638136
ascorbate 0.008663907 -0.07716286 -0.17595679 -0.07073786 0.083230555 -0.09494003 -0.117313035 0.07894108 -0.07272809 -0.06696544 0.12374577 0.02758549 0.10835063 -0.17932959 -0.0057445196 0.015468862 0.023141911 0.18999971 -0.011606437 -0.011023364 -0.061951328 0.025592694 -0.17104043 -0.13525856 0.07337211 -0.0436366 -0.11648082 -0.014867725 0.060072526 0.1924928 0.094156705 0.046433195 0.0469337 -0.0023266533 0.01765234 -0.040125433 -0.078543335 0.06062793 -0.021990148 0.03238506 0.13670869 -0.0562835 -0.13264494 -0.0931057 0.044368472 0.08186273 -0.11839761 -0.03373863 -0.12118228 -0.17709187 0.11107563 -0.07066768 -0.13190158 0.024344709 0.10099723 0.062621966 0.13165545 0.12859756 0.18052419 -0.028486224 0.04062432 0.043268096 -0.0018385614 -0.06929898 -0.02242227 0.03300411 0.060358502 0.012608688 -0.045154404 0.06995079 0.16959658 -0.1625268 0.17314802 -0.097637944 0.11903116 0.051643148 -0.13835664 -0.1397501 0.0501178 -0.16025479 0.16956234 -0.16888171 0.16017047 -0.051385082 0.07085175 0.17707027 0.14088407 0.016121233 -0.15614156 -0.1138071 0.118987344 0.025609707 -0.034802947 -0.056202047 0.07328548 0.024243005 0.05384167 0.113821805 -0.12936017 0.06310653
given -0.025959129 0.010895229 -0.15929438 -0.20270646 -0.03997926 0.021511171 0.032659005 0.013630926 -0.14738162 0.021453572 0.15252905 -0.08320306 0.06198682 -0.15149805 0.02147118 0.024177443 0.1182217 0.087370925 -0.008246381 0.036835477 -0.07857474 -0.11362847 -0.044380233 -0.014407025 0.08352643 -0.07608402 -0.16992415 0.07475733 -0.032466818 0.12782732 0.13935244 -0.04730147 0.006167758 -0.04832868 0.15471813 -0.13699943 -0.0035713252 0.04626795 -0.026059525 -0.08102695 0.06205722 -0.17584482 -0.05301051 0.007471895 -0.0074306335 0.17827035 -0.010782286 0.07767603 -0.11088615 -0.1427461 0.084599495 -0.010233062 -0.11257094 -0.06783722 0.104995176 0.17086056 0.015415875 -0.0033163244 0.22642845 0.01648654 0.004369939 -0.0051662303 0.063718915 0.07632726 -0.11295235 -0.09652202 0.15479442 0.11714172 -0.06202683 0.01856845 0.12383564 -0.1941753 0.12577093 -0.19098064 0.008236237 0.036253504 -0.18949114 -0.04167988 -0.01394417 -0.12151484 0.03590996 -0.12073108 0.1514827 -0.10397178 0.06276016 0.12047972 0.008179688 0.07087359 -0.036434557 -0.10017777 0.16371314 0.024061827 -0.06208263 0.0071517415 -0.0015777324 -0.14571925 -0.008538118 0.06811109 -0.17282599 0.185722
created 0.030070083 0.046007555 -0.05534802 -0.2525387 -0.05494079 0.053927228 -0.03485917 -0.0196244 -0.20890127 0.0054057995 0.11234676 -0.058872968 0.039210804 -0.07833542 0.020846182 0.0481838 0.13187282 0.19356102 -0.031781245 -0.052267577 0.004756299 -0.11257153 -0.090003006 -0.1095595 0.055066776 -0.10895257 -0.08279262 -0.019911582 0.043048505 0.18027185 0.059727877 -0.06512654 0.022356024 -0.11706834 0.15304732 -0.14967857 -0.02313046 -0.02314456 -0.0034695275 0.013564514 0.13026851 -0.16639872 -0.13464028 -0.06312452 -0.04496778 0.20945793 -0.010197224 0.07156343 0.031796306 -0.2074503 -0.024551637 -0.055892702 -0.1332683 -0.051681783 0.012846586 0.03597751 -0.011505102 0.14898373 0.108377896 0.06599186 0.0060087494 0.018720664 0.018507196 0.044465903 -0.19331442 -0.020018136 0.12170627 0.08192849 0.083842106 -0.052377068 0.1240581 -0.164817 0.0765161 -0.1126143 0.024049003 -0.013739593 -0.23804039 -0.045924522 -0.010466857 -0.1650121 0.13104843 -0.09290798 0.043721244 -0.10476554 0.05149292 0.13947596 -0.027508697 0.06730799 -0.012133578 -0.20142595 0.15730578 -0.046051092 -0.009371535 0.058947362 -0.024083843 0.01004749 0.08253046 0.013837112 -0.1018763 0.18544829
assembly -0.008712388 -0.059065334 -0.064263396 -0.16327925 -0.03284487 -0.07531119 -0.023663921 0.07466593 -0.16920684 0.047637336 0.099289894 0.0062317317 0.048810206 -0.10950308 -0.023125388 0.060008623 0.134475 0.12309079 -0.017490916 -0.09894895 -0.06430578 -0.14182979 -0.099347025 -0.12354915 -0.017146291 -0.14778262 -0.08745722 0.0063023805 -0.0037212013 0.11891889 0.17966813 -0.030097982 -0.007273931 -0.0057641957 0.0791096 -0.091337524 -0.08233849 0.12121917 0.028286355 -0.1358864 -0.01060193 -0.12897807 -0.070471935 -0.0940864 0.061295535 0.16528654 0.014841337 -0.014135275 -0.074090295 -0.108402096 0.010842311 -0.08303534 -0.031201951 -0.1114223 -0.003875146 0.06189257 0.020855855 0.011074025 0.13351884 0.103530355 0.103148915 -0.017474191 -0.013543624 0.03799589 -0.13875307 -0.13107257 0.11578236 0.13782863 0.060557313 0.06307743 0.18930694 -0.228407 0.12334422 -0.13818713 0.077997096 0.030275736 -0.1317257 -0.1420395 0.020939145 -0.13959302 0.1638368 -0.05285867 0.14760205 -0.15268655 0.121366054 0.17480685 0.017471379 0.08585822 -0.056762435 -0.17980681 0.04041912 0.007942956 0.007412341 0.041301858 -0.03825933 -0.081131704 0.015684828 0.099288434 -0.12060373 0.24549113
domain 0.015202476 -0.0012178369 0.0030813252 -0.1210107 -0.06895445 0.05794163 0.07142201 0.06136779 -0.08411881 0.0099904025 0.10754976 5.6123376e-05 0.1415461 -0.123193786 -0.06376972 0.08391741 0.053141724 0.018457122 -0.07020753 0.008475151 -0.089915305 -0.012895061 -0.14165728 -0.009043947 0.08938518 -0.15388606 -0.040798444 -0.034990363 0.0007075383 0.20043878 0.2090242 -0.011613278 -0.0016967109 -0.07816566 0.041483823 -0.14354086 -0.0716341 0.07248273 0.0046837963 0.011963803 -0.02809428 -0.19005996 -0.09484243 -0.05656268 -0.050175004 0.08417364 0.0041823587 0.089654915 0.0037329744 -0.21378805 0.024872083 -0.010997661 -0.13956931 0.013221097 0.12411333 0.0522436 0.087647475 0.055399895 0.15173629 0.074340105 -0.054059662 -0.042260643 -0.09002585 0.088448904 -0.08909426 -0.13028769 0.17985466 0.06607086 -0.09210454 -0.01862858 0.17179854 -0.23648964 0.19042987 -0.22402914 0.07386306 0.058519505 -0.08172926 0.008925773 -0.10080151 0.016914712 0.07432741 -0.07177795 0.12552814 -0.01952747 0.11223973 0.08389155 0.09179004 0.040420182 -0.04129487 -0.20378238 0.047011483 -0.05074375 0.046274662 0.04843349 -0.10944983 -0.14602704 0.018207679 -0.006690518 -0.21532185 0.20127788
protein 0.029057361 0.04425674 -0.06145215 -0.22103639 -0.0037394457 -0.019623006 -0.0244639 0.09232806 -0.14853731 -0.03146728 0.14426915 -0.02143674 0.12427151 -0.10312804 0.06665961 0.0016341878 0.07349401 0.15628847 -0.07889522 -0.07101163 0.013040676 -0.058764398 -0.12624331 -0.049455993 0.09063887 -0.18039453 -0.14799976 0.054512314 -0.0068728575 0.1547567 0.090887204 0.026513 0.019202104 -0.032339294 0.1655688 -0.08411737 -0.033612404 0.034451295 0.024444817 -0.034948014 0.05751709 -0.18117706 -0.08954839 -0.010559221 -0.015039588 0.10611049 -0.07246108 0.0003994828 -0.041670535 -0.1805668 0.044222176 -0.05554388 -0.029062845 -0.04974268 0.023260212 0.15239869 -0.00380512 0.08809644 0.20620443 0.06994897 0.010753878 -0.03231669 0.029109597 0.045560222 -0.115653954 -0.089984104 0.11787923 0.08586225 0.014241485 -0.0020625417 0.055174496 -0.14659745 0.10124346 -0.2196734 0.070810445 -0.006726137 -0.21447003 -0.0106039895 -0.103820056 -0.06459795 0.15116401 -0.10542129 0.109166265 -0.13130657 0.12067166 0.19382375 0.11532768 0.081409395 -0.086917326 -0.18670271 0.1467769 0.10017985 -0.047842525 -0.025488256 -0.06891955 -0.10013485 0.010863954 0.11765292 -0.1524856 0.124530576
who -0.036959667 -0.00018092283 -0.07648042 -0.20111516 0.0045579234 0.0036861715 0.031981517 0.0108783245 -0.11715923 -0.013334973 0.095160596 -0.049351774 0.13964714 -0.13115345 0.031746864 0.033389404 0.08164723 0.06290328 0.009552018 -0.060537625 0.002673207 -0.11861453 -0.111736566 -0.03870312 0.0098703755 -0.18184562 -0.15161285 0.0067444346 0.059883393 0.1589467 0.20253757 0.04203188 0.091015026 -0.06732529 0.16510308 -0.06555024 -0.030837832 0.09448014 -0.049559012 -0.043993823 0.05252855 -0.17557953 -0.02137813 -0.10175216 0.031452917 0.130286 -0.015458707 0.08746755 -0.010968336 -0.14671448 0.04643718 0.028900677 -0.117910735 -0.0827877 0.085533604 0.13630877 0.06585577 0.10479086 0.13932484 0.05709274 0.07663149 0.035053566 0.038957816 0.017297758 -0.19765764 -0.01997198 0.11408225 0.091651045 0.05195605 0.06882493 0.06917015 -0.1758137 0.15806939 -0.18220823 0.12898427 -0.057282962 -0.15921237 -0.10076102 -0.0030329635 -0.11878686 0.13127567 -0.09642707 0.15076804 -0.15957889 0.051182482 0.15185161 0.025783733 0.039660208 -0.10625822 -0.14738163 0.13061845 0.09233631 -0.051853526 -0.031729527 0.00032391565 -0.12844409 0.008781134 0.023523152 -0.19055153 0.13950579
had 0.08265949 -0.07713626 0.017459078 -0.057314333 -0.048765745 -0.052180577 0.07709549 0.123802505 -0.13159448 -0.016082613 0.034659415 0.07704684 0.012253507 -0.044010628 0.1357709 0.1514619 0.06507163 0.03125753 -0.06649044 -0.009194375 0.042757545 0.021075882 -0.028242368 0.024752945 0.07789944 -0.19222294 -0.05023129 -0.056308586 0.03812986 0.07039516 0.14925328 -0.020583114 0.10160894 -0.14001268 0.20139155 -0.07006167 -0.08093072 -0.057556074 0.023199065 -0.058814324 0.08842486 -0.05427091 0.0012782422 -0.0881118 -0.0879547 0.22104664 -0.12902994 -0.07274148 -0.0830843 -0.20766588 0.12162841 -0.09405251 -0.17322074 0.02505932 0.0036904567 0.056270692 0.0107632205 0.123036735 0.09021805 -0.054275207 -0.015470422 0.038917925 -0.08665284 -0.08064739 -0.088590756 -0.12211897 0.1689421 0.03662198 0.06122965 -0.097308725 0.047329154 -0.24407129 0.087671034 -0.22636852 0.045009635 -0.11391264 -0.13241991 -0.07593424 -0.059655517 0.025455177 0.017375845 -0.003317538 0.19553068 -0.023069784 0.15135854 0.089146346 -0.05859564 0.050366066 -0.13216142 -0.16004138 0.03233079 0.14351514 0.0148927 -0.04406984 0.06413691 -0.07474047 -0.090821736 0.07473021 -0.22305399 0.12947652
isoenzymes 0.057960503 -0.03894004 -0.05164018 -0.11576912 0.019657994 0.00982069 -0.07989721 -0.0096486015 -0.15755105 0.049184863 0.11766773 -0.015033139 0.09869575 -0.16421357 0.03473556 0.054288235 0.14811493 0.10312684 -0.015980668 -0.115422234 -0.08312702 -0.14759105 -0.02050879 -0.124773785 0.03258906 -0.10361723 -0.18482742 0.1433768 0.05120008 0.05190556 0.1520404 -0.060111705 0.06572613 -0.033312943 0.07676818 -0.014593207 -0.10351175 0.09730729 0.02357081 -0.0075788544 -0.011885533 -0.05376737 -0.020316852 0.007403116 -0.033197276 0.119180545 -0.10732409 0.08343556 -0.13283361 -0.17035675 0.08920966 -0.013227427 -0.13136433 -0.11331209 -0.0339849 0.10602161 0.041445494 0.14347737 0.22306891 0.035238154 0.010309429 -0.020822257 -0.06932761 -0.024990052 -0.17615327 -0.043905806 0.09284801 0.025603272 -0.07096508 0.087520204 0.088020116 -0.13664863 0.03994458 -0.14600456 0.051132374 0.058604453 -0.12675531 -0.1581131 -0.12721981 -0.11241901 0.15378274 -0.105609074 0.02317061 -0.03181625 0.14837252 0.24042568 0.00023992998 0.104166105 -0.00439872 -0.19515122 0.11937261 0.10471884 -0.094074495 -0.028023137 -0.03345166 -0.037212726 0.043638997 0.074430704 -0.22018915 0.12543002
= 0.030766968 0.033265397 -0.08649022 -0.12782396 0.052395195 -0.045192625 -0.0965222 0.061267354 -0.15920249 -0.0030606934 0.11054565 -0.061836142 0.05097537 -0.05149786 0.063676335 0.08717909 0.03292839 0.14535968 -0.036946457 -0.041332822 -0.073396385 -0.13755754 -0.12596813 -0.14551201 0.017677784 -0.14627713 -0.11781528 0.12080165 0.060178414 0.15547809 0.21102968 -0.05600597 0.05333651 -0.040794555 0.1776831 -0.09462383 0.011933825 0.13313575 0.0066413498 -0.040175155 0.035933644 -0.10884718 -0.118925415 -0.11008798 0.06600721 0.1219359 -0.12373784 0.001982346 -0.0608864 -0.08795221 0.023059484 -0.06270133 -0.010634357 -0.09562004 0.07285033 0.09667094 0.036420748 0.13855721 0.1896634 0.08884445 -0.007407464 0.00745213 -0.070325986 -0.01613303 -0.1752591 -0.110467315 0.11055031 0.099350974 -0.056795023 0.046613507 0.1489825 -0.10466984 0.1384816 -0.097852826 0.054297816 0.048863504 -0.20039648 -0.13640592 -0.07384648 -0.13225412 0.14807065 -0.066866934 0.0863362 -0.12911093 0.09339722 0.16065781 0.036027987 0.01121188 -0.09417578 -0.17184599 0.10489343 -0.01041931 -0.007817366 0.058245424 -0.00066740933 -0.12777245 0.052116647 0.12890485 -0.17221102 0.116361015
and/or 0.050047822 -0.063846886 -0.061491318 -0.18188167 0.060366325 -0.10566173 -0.10523721 0.13636439 -0.024809284 0.1259735 0.18888046 0.01918678 0.089892335 -0.14173238 -0.03618991 0.11823253 0.01208836 0.043999575 0.0009236682 -0.08120758 -0.04551077 -0.16624962 -0.11526676 -0.16433208 0.05147052 -0.031924184 -0.15862793 0.071272515 -0.038576286 0.044524666 0.1404996 -0.07583295 -0.0499473 -0.13989638 0.10534231 -0.023297962 -0.048306912 0.15947141 0.09023372 -0.14410326 0.13277313 -0.18939176 -0.13554695 0.037375573 0.10560205 0.018030953 0.02651872 -0.009704677 -0.01714766 -0.1599488 0.0059365453 -0.054857925 0.051521465 0.057141006 -0.028201846 0.08973758 0.011419886 -0.011782035 0.2097537 -0.04815586 0.090426125 -0.07348503 -0.027014915 0.037030533 -0.01236739 -0.13754307 0.114811964 0.00237736 -0.08086724 -0.008193864 0.15138449 -0.15404798 0.09670144 -0.21043663 -0.020823583 -0.014392716 -0.24575716 -0.17038833 -0.12181775 -0.022322096 0.028639514 -0.020626724 0.010752808 -0.0021176345 0.09305108 0.20391835 -0.022348717 -0.03636917 -0.056129716 -0.04615833 0.007897279 0.07631406 -0.04250012 -0.09906028 0.08255273 -0.11729243 0.049596857 0.114668995 -0.12690689 0.14003436
complexes -0.06718547 0.058241062 -0.08202876 -0.098807916 0.018933523 -0.03501667 -0.077253684 0.02979332 -0.15884005 0.016947716 0.03852688 -0.0828697 0.13335708 -0.16124785 0.0805709 -0.0160541 0.10697856 0.15938628 0.034373667 -0.052385855 0.03376639 -0.13250823 -0.04154423 -0.0815692 0.057298955 -0.06762995 -0.12241964 -0.003658451 0.052535206 0.10295863 0.21290857 0.012413411 0.107570074 -0.09009015 0.077028476 -0.122770496 -0.045516256 0.067958444 -0.074942455 -0.14273922 0.008448009 -0.19221097 -0.01170673 -0.08236388 0.0018515442 0.064729884 0.0064150034 0.07379502 -0.057021286 -0.2027853 -0.015711857 0.0208406 -0.0034920408 -0.114591405 0.0702552 0.17361745 0.056308743 0.025303766 0.2135251 0.10806596 0.046948552 -0.013856497 0.083043866 0.0003710933 -0.15372774 -0.13372393 0.18135133 0.12164124 -0.05238832 0.052042846 0.08501017 -0.21852554 0.053127605 -0.17183581 0.08955845 0.0005487445 -0.11945788 -0.1361628 0.021621117 -0.15525685 0.071694754 -0.060169604 0.019713541 -0.16179526 0.10384472 0.14028138 -0.0068552275 0.11872662 -0.1268731 -0.14838763 0.07545555 0.09504709 -0.08833852 -0.024178265 0.039004914 -0.10037341 -0.013485751 0.026437368 -0.1589698 0.12752633
